{
  "biases": [[[0.16428021594488487], [0.21238282801675185], [-0.4664336758483534], [-1.5047317669414157], [-1.5567485008004385], [-2.140965759389116], [0.6734858279008208], [-2.8854733127084176], [1.9511748129749256], [-0.45660076080453704], [0.14476118938960422], [-1.0105300969213458], [-6.814677170907105], [-0.677200177607995], [0.29780155489989396], [1.4210291039541594], [-0.510767966630852], [0.5416752465395652], [1.71457324187542], [-3.30500915690936], [-0.8925756752298748], [-0.9394757205946421], [0.8421984839800657], [-0.5429139793426221], [-0.9797319855082183], [1.3214962496466904], [-3.262462297044414], [-0.01972833371504607], [5.579994058356312], [2.7382820426334433]], [[-6.1765361974982325], [-3.174290009792905], [-8.460795107751249], [-8.463699020828127], [-6.6516753872023004], [-2.988280532000317], [-9.788553496440805], [-0.3455303006921411], [-9.892075023874641], [-9.7120877069678]]],
  "weights": [[[0.36497958111814627, 0.4628824741065503, 1.2376891623114101, -1.237593844586782, 1.1111872819460618, 0.9567361656283107, -0.2415434506427731, 0.8488140306980764, -0.20233567499931948, -0.4776415187365903, 1.4940902657964323, 0.06732776137888226, 0.6234548273740116, -1.617536339517888, -1.1297311616795114, -1.5571768510497075, 0.5558571044027908, 0.03583451605112077, 2.1827014118653025, 1.2632839842986026, -0.5123760546626436, -0.4553781704512692, 0.15030066209859802, 0.6742498115362422, -1.0164484349723149, 0.587709623385076, -0.846475633258185, -0.7425469366751737, 1.1815584797347705, 0.8732993688193921, 0.7020467640106733, -0.44950917337311685, 0.7724656222885458, 0.7157928297930355, -0.5243875397438529, 0.5431004448936233, -1.4608644283519439, -0.48837450562907914, -0.8887749970772522, 0.9608456335582275, -0.8957866755265333, 0.822681843052708, -1.085793809975129, -0.5958244770282677, 1.1273429200007234, -0.42864624075917407, 1.4380315037325166, -0.9608723669597962, -0.5999624504847182, -1.968882012392853, -0.25175795185699895, -1.0548842753415524, 0.7008527259499353, 0.07852847202641741, 0.7657525973059377, 0.6762309330384758, 0.7240793474302627, -0.3811713721600587, -0.2730850422316517, 0.577388557290305, -0.004370384446535241, -0.9763613560422879, -0.9818098085528968, -0.529623707204248, -0.30873961567939734, -0.23252072784679423, -0.2875666027522299, -0.6145149735540076, 1.665330521751011, 0.3377765813040787, 1.5026486686283012, -0.256639122072104, -0.5393292101087505, 2.143555304044064, -1.8626440730233413, -0.8991682773939835, -1.771431953142396, 0.57227651778418, 0.2600520778531325, -0.4777483198668846, -1.645138198101051, -1.0293474864483554, 0.1207770117531481, -1.1277932198432856, 0.15557580335169463, -0.396330744490132, -0.19881480968867354, 1.3820361804445591, 0.6268991648008867, -1.4797725536499506, 0.28098128955206575, 0.3873141184942639, 0.4957300074435164, -0.45667217636677376, -1.1016385762660401, -0.19605198227947324, 0.7099288317648059, 0.4623379037565469, -0.11897660099132025, -0.3973382243460408, 1.4179794788694162, -1.9366322326316974, -0.7961453347102602, 0.9868602868368529, -2.3765277108213514, -1.7191182416331594, 0.2434806305389573, -0.5289144808871562, -0.0781622771853442, -0.8381688768592246, 0.6830557465020134, -0.8011357591516824, -1.3481353539848575, 1.2363803265629774, 0.7225976300171866, 1.5867368631056884, -0.1560308717244598, -0.3363077923696325, -1.1310026962658342, -1.296057736422572, 0.5272475688617111, -0.7567678725535327, -1.055968512239125, -0.39302541907886346, 0.6055723866882251, 1.595830998195328, 0.7958397477004906, 1.5251593367115222, 0.5695230984700786, -0.6254100558950015, -0.8368769831737175, 0.11411878726601231, -1.1467231492501397, -0.9542402632123256, -0.6956571670420117, -0.1415010085577077, -0.141343328662086, 0.9466309350820376, 0.4894990563759294, 1.451159809487804, -1.288466241650604, 0.20061407854100893, -0.3609749127953647, 1.9681668422968568, 0.8572262254241995, 1.5249878148497975, 1.0127104371222133, -0.718388171530979, 0.5556411755047468, -0.4622471760292642, -0.4497289165906887, 0.3177389919701366, -1.1948952847760792, -1.3585870597827363, -0.008673941686261462, -0.17112122961535417, -0.6411462927898447, -0.6051133753823944, -0.3679338270392288, -1.4978092872406772, -0.9107335397145128, -1.025694938030668, 0.4228685360987384, -1.0768791429762334, -1.6979098375593025, 0.8021094002136356, -0.09397035343127531, 0.34158858701717304, 0.7320500812571739, -0.38000752135479066, -0.05118337249405648, 0.1773753597808446, 1.032188070005671, 0.3556902471673724, 0.9564996426586362, -0.5535760638524718, -0.4054645695694081, 0.5217628556796018, 1.5982724829100754, -0.5401755212306157, -0.43244429781734284, -1.677833063303341, -0.47391725354011294, 0.043616948517933206, -0.054817776797917266, 0.11892044455965665, 0.8431860515569586, -0.046362906716265605, -2.1757342780625697, -2.4489514057557717, -1.8933498016271986, -0.18539835893648804, 0.3295548729065535, 0.9620927959199504, 0.3371668983214958, 1.2074926041188625, 1.029566816645615, -0.8397485926555759, -1.3291743031401002, -1.713672776034691, -0.26331602841374535, 1.03277360678646, 0.30477621884759365, 0.36396531739167187, -1.2338280750000383, 0.8778275692196373, 1.444815491715652, 0.054004420490432664, 0.7041311010870138, -1.0004557270370482, -1.4452567374990788, 0.21072136920343879, -0.5871005296890873, -0.5383803635660982, -2.4867367784005117, -0.29194818351914836, -1.0299275315364715, -1.6523825109790227, -0.6373967104843539, 1.1095169562529161, -0.3039542238095206, 0.5355482036078568, 0.8984841536635998, -1.4833771666776687, 2.36417504132481, -0.6004835543927503, -0.49634285781419935, 0.820802016099027, -1.7014941328926239, 1.2131853216145307, -0.5478947339266043, 0.5269165650910045, -0.3809166854344944, -1.2401653985155168, 0.38521981052923304, -0.6736844520248474, 0.5523384659619951, -0.7948134555617276, -0.14874081103917916, -0.48317051377266856, -1.3944522484315736, -0.7393450218124092, -1.3747929209058112, 2.185323475305395, -0.4095193263436194, 0.5804236449644754, 0.694959464092941, 2.34735472549808, 1.8736543519353501, -0.9417473965346608, -0.8471822558678729, -0.7690770195113709, 1.9874468912639995, 0.2538694980907324, 0.35949846494615284, -0.13202612773919534, -2.089223541041772, -1.1707209068171522, -1.0580903281126088, -1.49101640959312, -1.063094364195544, -0.39916213193089234, -0.5175450853434568, 1.0337846444390761, 0.04760120535953364, 0.7814851005153702, 1.8465921888771804, 1.6370483979213304, -2.019463537834334, 1.3481398724747111, 0.6137101583790707, 0.8899695789489485, 0.4401124608105341, 0.4765079100780088, -0.106232988030699, 1.3319626089071213, 2.6252846821807436, 2.1364705634874626, 0.8931257494252695, 0.19432432159654736, 1.1875996654923762, 0.5971952810240679, 0.929356440332002, 0.4905897895085323, -0.6603762895800309, -0.09689761785007887, 0.7472207622247934, 1.1754744237319845, 1.4457407501605894, -1.9270867577770758, 0.3177259283411981, 1.1658120899095028, 1.272956915350492, 0.548323224288099, -0.5782720723182971, 3.0054178476796496, -0.06934298357220887, -0.6359972090201332, -0.9587789377139013, 0.8965005259005172, 0.036759254051923596, 0.8183016287416927, 1.544689621817048, -1.0002556740495083, 0.9830339217408247, 1.4022835726770522, 0.09095202396057189, -0.49609272934724513, 1.1448111080659935, 0.7665822271806819, -2.0482338530138695, 1.8259071506331144, -2.3246020255858015, -0.8797439566986495, -0.5908189097786315, -1.5880232476930685, -0.6332018365467075, -1.7888112114215384, 0.2910820733378596, -0.2217434591998844, -0.0794353185240015, -0.08949159383396377, 0.7627574516783467, 2.5161274052749096, 1.6661930818575685, 0.5433711541768969, -0.007422555089427362, -1.2982408113377384, 0.7667400943258734, -1.2085781258106578, -0.887723739442578, 0.6372442025050128, 1.5333068054602608, -0.08419802155402523, -1.3251441835988274, -1.1336758317044366, -0.35686205066925375, -0.4337724073612842, -0.4469124549157701, -1.1230595323257064, -0.37780921858719535, -1.671279517311955, -0.7324147581303438, -1.488354783537209, -1.4523074784663597, -1.479245171547285, 0.16362463561564528, -1.9206934660912809, -2.131842612570217, -1.0093703768105275, 0.036075925542446874, -0.526230491472236, 0.12138658801175431, -0.892957719344843, -0.051775793823759686, -0.5564835977365835, -0.1471632646832456, -1.4626619193211299, -0.09417994092388622, -1.2599538369432315, -0.14086783898960806, 0.8471984200671641, -0.0233996773819987, 0.8172796854341056, -0.200670459526901, 1.1604715817459523, 0.22299721182062857, -3.053912122732428, -1.3447526470292566, -0.9510329812827704, -2.127094476164227, -1.2748149397489512, 0.8787661888353164, 0.1378845643762614, -0.9700635550753413, 0.9211471408238603, -0.08048994278889564, 0.7221275141714165, -0.3743616631806438, -2.783334710920204, -1.5509547123995915, -2.511823640211241, -0.6691618316530741, -1.6017101301465366, 0.40747948379956606, -3.430440565969403, -0.6864923351902336, -1.1163168296673953, -1.5943719226468562, 0.4417849412566972, -0.19115186817942395, -1.7837952247000344, -0.6250500548030264, -0.7895745423089635, -1.30379380195507, 1.607995531245281, -1.2345563346164012, 0.055518269354909874, -0.6396660172190878, 1.4765250634026363, 0.831978475284812, 0.3980414405479142, -0.0480647045691844, 0.7853983629275698, 1.1003593716788516, 0.5713489144040301, 0.5350204545893648, -0.3454389275949618, 2.499961643640763, 0.5589363735545136, 0.2174469609349186, -2.6656973042232996, -1.207666986263068, -0.19560380395040347, 0.05888610459978811, 0.8277271324550228, -0.9467253276847507, -0.7429827995231523, -1.1769251550960493, 0.6103534178094433, -0.47928780847866237, 2.3119389833146133, 1.4262511299813543, 1.832370937406274, 1.9860110260821058, 0.8066196154405648, 1.9669176540995466, -1.1515641774202747, -0.10759476895460177, 0.014440412780675907, 1.5061229241646834, 0.7065161125322255, 1.230571681530663, -0.7199338097677337, -0.8746660621388966, 1.535581854535479, -2.204628744938679, 0.640232035116949, -0.0983467244787427, 0.8480302680178423, -1.159786170841164, 0.6203534437380646, 0.45716410643244804, 0.563838573800149, -1.604522579999023, 1.0719743987276191, 0.6298371957900858, -1.0624408641506908, 1.0291128699979324, -1.226683528287347, 0.07298222496943058, -0.9559778674736205, 2.4714056040736163, 2.507150344042202, -0.5699651542767111, 0.4308088013045343, -0.8902420488992031, -0.0992918501359353, -0.6366663668283595, -0.33130954512504224, 0.966360100108403, -1.17251285220498, 1.4221125355834998, -0.6642969280820136, 0.21065855306065265, 0.0480735198464443, 0.828926987960619, 0.8364732724853404, -0.2893674696187327, 0.09791919065243941, -1.722254070471627, 1.156923648062771, 0.27136496983133973, 2.255101472236732, -1.3453554112899573, 2.4885266483067388, 0.7164036065906471, 0.1270820366263391, -1.0252261388146275, 1.6388688559006093, -1.2273608366627347, 0.35851533284126763, 1.6268553236764274, 0.8211578040561525, 0.45048927453388293, 1.187711643588885, 0.3059647031566747, 0.5552632317244683, -0.3947027623034151, 0.5245863326601845, -0.15468971728118222, 0.8864925581166242, 0.6734219002346508, -0.47061661619216283, -0.3592029768521704, 0.25516824546961503, 0.40560497412496205, -0.3439409894060566, 1.5731300331781646, 1.4751157445843233, -0.035427183201236924, 0.23174705027097728, -0.008096899215481209, -1.16523458917825, -0.696524202865404, -0.4297416232475995, -0.20517960207976957, 1.2528824324262413, 0.9743177441583627, 0.5861435440965932, 0.8885239445304799, 0.48052664816590385, 1.2104140967838484, 1.6009313732683856, 0.6860640686562872, -0.22702798992283818, 0.3175422945344571, 0.01741808689492681, 0.2699408487535694, -1.1755235344834152, -1.10174203535536, -0.8731152981750202, -0.46827692149732875, -0.6094108196960307, -0.45819581975264756, -0.7183484115348746, 0.5458279662653405, 1.2710712222088025, -0.7412301015640304, 2.2154750591986763, 1.4348808653193685, 0.3852303392252111, 1.2774990202882492, 0.7872493323623704, 0.9165784364971258, -0.6532529508328386, -0.008276907746449205, -0.09401752263044108, 0.01938567808934389, 2.4685826085664355, -0.12394754244604403, -0.6961231640372814, -0.11487338606667674, -0.8726732290193983, -0.45544869147940004, -0.645875932477238, 0.8526286786059777, 0.4976608285179657, 1.6276553494578072, -0.011638327595471636, 2.1206950082022566, 0.29804411300472927, -1.2758588880605124, 1.433732204045603, -0.38410408177594374, -0.8064075544553976, 0.6613523998264201, -1.3222993955970535, -1.3277404537707285, 2.039812644357139, -0.9778672346066579, -0.3083010468444816, 0.14152229057286325, 0.06740260645514014, -0.4677262177611506, -0.13340846853150873, -0.056516778303392676, 1.3577881938214624, -1.050036934968364, 0.45637901037497114, 0.6432391944801847, -0.7365637030093463, -0.6330948007198374, -0.37981267092093257, -0.5619116335667064, -2.9711745023449527, -1.212993386990367, -4.040705714311537, 0.16391744832428043, -0.6550295164279321, 0.7596371144665838, -1.35068189049029, 0.413566740036624, 2.206013709767693, -0.34478014719761657, 1.222967763857374, 0.19374070329160745, 0.11120909994132865, -0.3284797637757642, 1.9606157730352842, -1.6049332196445187, -0.09900062750282, -0.11947991814102749, -2.3876653560741814, -0.535451305072112, -0.4034758521501804, -1.5748349078672883, -2.622597622272989, -0.3638247616456848, -0.13057536111140644, -1.1850638139936425, -1.1418507014305832, 0.4209548417606566, -0.9458731234233096, -2.5430427239195885, -2.688381736739, -1.7048411324007393, -2.944430327378881, 0.8016202238233487, -0.7413137366372975, -1.765094322548231, -2.0954523268557557, -0.6847155123672666, -2.3992467090708374, -0.9339056586453109, 0.1770218302679413, 0.5646737843927646, -0.15184760151860077, 1.024111108495091, -0.2611167968165067, 2.021475577084637, 0.24210795257711756, -0.5481346483338704, -1.0447125942782536, -2.1253763327775603, -0.8157318624348747, 0.13758968946808525, 0.04621479286529562, -1.342814832200554, 0.06163053016851287, 0.3379140653595159, -1.236260672090539, -1.5606336191339314, -0.23595319061871362, -0.012123957569187634, -1.2846463729886743, -1.7295906812949657, -1.5895095212341868, -1.6321790798882885, 0.3721262170091704, 0.36961339113491426, 0.06474766853795705, -1.1051055220273696, -1.2371058683891931, -0.854045743728049, -0.31865481229118203, -1.4161885921034996, 0.8197897544639745, 0.6505188361246627, 0.5720150880555644, -1.0996536426362291, -0.2089803776695631, -0.11832045324559058, -0.13378600078445935, -1.379417207594543, -1.2892849351145732, -1.5680146471769183, -1.5885038325617626, -2.0097461558438945, 0.1219405177368125, 0.6240594013260844, -1.1967873724739169, -1.174062942886777, -0.35491792709607345, -1.7026361753390076, -0.4643373292993765, -0.09732615725238211, -0.2207051538441137, 0.7097948148212192, -0.8049535405135784, 0.5576352581477902, 0.5859895018400659, -0.5186974988168146, 0.15895191777071968, 1.2102352619535568, 1.3368797978211098, -0.9078679267473939, 0.02459842254872677, -2.420472041947668, -1.3382238626706389, 0.038797513268003646, -0.08704292687902852, -0.45092385802669405, 0.26173192812343926, -1.3499777174139724, 0.9062940120217645, -0.5273150765713078, -1.6721871585905017, 1.3805864056942154, -1.4275517417176, 0.6443746443607044, 0.6746100672475167, 1.3138818852378746, 0.6762069004979584, 0.06174505335655805, 0.0731298946398947, -1.1273891699874437, -0.33164447557425625, -1.202624138833939, 0.48124540191921417, 0.3807537949619125, 0.6485852543485394, 1.3917216196728794, 0.9445696488788955, 1.806543961433578, 1.4210933991430117, -2.560495690902922, -0.9844886526926111, -0.042622315452652354, -0.28241027413063413, 0.13133850713333753, 1.1201460351396357, -0.5113006528461863, -1.827223346012741, -0.12473326046581995, -1.9994411204792457, -0.47585925343690394, -1.2127882154614322, 1.4390460157624203, 0.2250665375222513, -0.8259062730381262, -1.3254234223233392, 1.9755858085056903, -0.8867783894722735, 1.0544614095388347, 0.6111000852211679, -0.6235138332163936, 0.2637957868899237, -0.09679698520275172, -0.1584388903864213, -0.3218087354861082, 0.30584955539441916, 0.22530585462199168, -0.1359634374188664, 1.2532817442562945, 0.7201954186323613, 0.05857318168144616, 0.45919184180744693, 1.637025156961054, -0.18788537852120543, -0.05205015398473691, -0.5470904830796961, 1.052301498558294, 0.2511729634702627, 0.39644462612165543, 0.4702516995020506, 0.5683103128489708, -0.25799701389744384, 0.5723987862156199, -1.2637292179248247, -0.6451957878049045, 0.8624736898106782, -0.3822435941043396, -2.0930561392662743, 1.416839745683755, 1.989961906300688, -0.20964489544307807, -0.3930028658298783, 1.417285272657153, 0.7939030419775384, -0.13709558252958692, -0.6944047119823404, 1.1544110197524977, 1.1769821457091725, 1.1512234646874624, -0.6365301331474758, -1.3529765106475198, 0.13970493347992552, -1.108671424565627, 1.4946229117855419, 0.24421015665533116, -0.14547896306261654, -0.1978798006481479, -1.5711997966414175, -0.7287838742636287, -0.6400742402391157, -0.3197944218591439, 0.17896323549453444, 1.1981684311994183, 1.0388879541074072, -0.03254211125139366, 1.1256423522429095, 0.6433588576661122, 0.9090439781768207], [-2.0131016397443973, -2.4915303549445085, 0.5471942750169527, 0.1987674531261748, 0.1320871258394979, 1.2964263737558066, -1.2390144063114237, 0.7042779121950455, -0.15614755479695092, 0.3107494435760446, -0.8623970062486869, 0.36155293253347226, 1.0136907193492037, 0.1221599957781868, 0.1081150055926017, 1.3338452002593448, -0.2785951421607725, 2.4138427293407516, 0.19552505739475123, 0.7535334178395238, -0.7710829306670283, -0.813923973644526, 0.5256827252598448, -1.0017724293649308, 0.9043502131964353, 0.20117222692639225, -0.4851911671881757, -0.20380185730758038, -0.8778374106975443, 0.4427715086455609, 0.03434558614450335, -1.668134296686982, 0.13887718080692205, 0.35955813385253016, 0.5460709938441974, -2.2331900042291553, 0.6601481857557071, 0.32183453962169933, -0.3475567629711734, 0.13604687879354366, -0.5121027495070408, 0.08037545493444513, -0.03687854159632998, -0.9723723598023445, -2.8355792671714077, 0.32405960157422203, -0.17147951774553455, 0.36671288215937264, 0.7489274942578245, -0.0818666238663552, -0.6849387028592733, 0.09102464359442551, -2.8525377460606323, 0.3584109708554767, -0.2758209035870191, -0.875206980134348, 0.31136786232509334, -0.645276860651962, -0.20109297996838713, 0.4431796688856635, 1.5046748282137374, 1.6238260231149926, -1.4826262690919414, 0.5199526242145647, 0.38236376016337964, -0.5049668734710564, 0.15180245693191538, 1.3280842001429547, -0.25339043967008906, 1.671407506943627, 0.47253362427550893, -0.5876158510996431, 0.5826091716460345, -0.3696150136675986, -0.16762590326352156, 0.2534082011729444, 0.8478217600001877, 0.013235655435969995, 0.3300733039916996, -0.13703529173887125, 0.6428418015899731, 1.3322018579948127, -0.028635640327240624, 0.2053815869716143, -1.1732334487403329, 1.4066211048610284, 0.854664381260504, -1.3024701935723668, -0.059749524937123516, 0.9363045612487495, 0.20028650397314968, 0.6038124328894459, 0.4386895160328776, 0.3596525138205154, -0.29640828154993526, -0.9823808532782723, -1.1652681304889945, -1.0361905128281643, 0.15921360768535242, -3.2468122874504775, 0.4901823417088927, -0.5416062696965748, 0.13215098910927905, 0.3033996436699096, 0.595834923426496, 0.7726621025662036, -0.11941787294369925, -0.5851973603768991, 0.6996425995141775, -1.781309134266835, 0.04332529492417097, 1.0659836128892262, 2.4456698349040424, -0.45638724570548267, 1.246101182776959, 0.8444016366341399, -0.8070373017086865, -0.7907203750318217, 0.45547224849961415, -2.034381091715044, -1.8276756449448959, -2.4481155017444305, -1.8598829243338437, -1.364492793259084, -0.31742531640858346, -2.2400062500508153, -2.778040087659284, 0.6983449704687927, -0.1369588656288698, 1.4015377932146107, -1.2359990695041774, -0.9272732526221361, 0.550433630822913, 1.6259315366222131, 1.5098996218535932, 1.5107073089410348, 1.4880434586110622, -0.5114338146691124, -0.650748726064447, -0.33430935780900756, 0.6608282449649288, 0.6087130699703607, 0.9310137812294085, -0.20254909110638547, -1.8700679537064653, -1.2698040975762386, -1.3726955342055591, -2.1408343156781333, -2.318722153993036, -1.0336472474145182, -0.23616084829404718, -1.1602030841810578, -1.1442339080947916, -0.7532969984582503, -1.0855756273295145, -1.1316756991488615, -0.6035673275420663, 2.1241444734234673, 1.318602596703185, 0.11580519883736068, 1.6405318660193857, -0.11117060185173316, 1.7718369504594877, 0.7260284967166952, -1.2396826932333405, 0.6790371602213375, 0.578841995855388, 0.24205869194809598, 0.26309067719708545, 0.6805555494650094, -0.42725366616305394, -1.3729344604734737, 0.8783625150984764, -1.7622839283155032, -1.3983769764369336, -1.039286811938484, 0.16675472072061515, 0.21944864180796894, -2.870992635929521, -0.9379862185107819, 0.3758037119182442, -2.895829120059746, 0.5519352862568583, -0.01608453842118992, -0.5691817699890596, -0.4654546572610097, -0.34374237013530246, 0.6324991683927885, 0.4260098274287311, 0.11851472196156788, 1.9169577476940258, 2.6132817113193587, 1.2669348009154946, 2.012378877856151, 2.22945952525785, -0.9859538626335631, 0.48292883257728014, 0.8084654024224216, -1.4389290854826666, 1.4559687774952763, -2.3178304845885362, -0.10560361348179134, -1.0113282446705187, 0.5163623680199321, 0.85342260384222, 0.41030484021025726, 0.2193143829637, -2.195310949137037, 0.12356668172490164, -1.2459617047415288, 0.13727538691144922, -0.042016612688334266, -0.659756288902305, 0.37887746467473055, 0.33439102254884095, -0.17487499580753288, -0.4541164728868206, 0.5775096873852911, 1.005618408970258, 3.605495258883373, 2.6676244733056707, 0.2428312392929326, 1.4765561008926502, -0.11447786811329284, 0.9311192670318594, 0.8294129236909895, 0.42628554303336946, -1.0190548411620772, -2.5765509159459117, -0.677699640923684, -0.5196768132833539, -0.21894646750382327, 0.3579929479850949, 0.6796556481771162, -0.8415910080368629, 1.6965128871221586, -2.5067299288182707, -0.5920345253855026, 0.4680532170805951, -1.5683576324418287, -0.15759816498450732, -1.569077268848908, 0.954722246294148, 0.9440611730769515, 0.3897632016496547, 0.9510243793503504, 1.2378764096665658, 4.382257463959921, 3.191213241094759, 1.7789725680373722, -0.07827725119274058, -0.825068769302206, 1.5631017376544947, 0.34236946539656465, -0.9807443584596629, 0.37412574605691074, -1.4790888439410614, 0.2731686543389289, 0.6298762125765512, -0.9595707139264091, -1.0648357173947816, 0.7698532759499159, 1.4212254981698376, 0.6619284407714466, 0.6686440166502774, -3.2231443170505796, -2.3877561023723683, -3.676678743831902, -2.44460095908106, -2.759955728240099, -1.6380525235178787, -0.8124629504537241, 0.6053880281738957, 0.18849771060831197, 1.8818898355847482, 4.048201018054116, 4.363854450684909, 0.29987199758549027, 0.7767403189905466, 0.43153663308469487, 1.6223565176869552, -1.160984070303534, -0.46589422875214387, -1.2977733067687227, 0.39977281621359173, 0.5587455285916149, -0.0864287781326762, 1.1444554754615073, 5.529125832727546, 2.244115753821304, 3.724264786716362, 2.6832401513160598, 1.4390839272047178, -0.1986151242355601, -2.2836989834369366, -1.755637201572498, -3.4854533672035397, -3.3346817699658806, -0.345502752451161, -1.1473137550909394, -1.1475796848378055, -1.3304460622489294, 1.1082206400927892, 4.098337496938699, 3.4538526308769306, 0.7783190557721658, -0.606044567108251, 0.6699153498844556, -0.9650043162701185, 0.13839707328938947, -1.3013217982408147, 0.3026807747857676, 0.7650387814557477, 0.04823433878109329, 2.245496706262354, 2.8423950525600223, 3.0665040917084485, 0.7877669730091372, 0.2764218105546423, 1.0398480537950507, 2.1083000874276614, 0.4408408711302809, 0.9723748363438544, -1.0351057397115024, -0.4073887209255865, -1.4035398779791992, 0.046613863362153105, -2.87680070161299, -3.4080416554150097, 0.42858221684756836, 2.7919317764337235, 2.7006270974114686, 0.9446042136682391, -0.7447978311468898, -0.7490110750255461, -0.5026569006607542, -0.9058043665240499, -0.5965538112212088, -0.6625020749661125, -2.7019087740503545, 1.0147133829613373, 1.0972727922741918, 1.9719315918169587, 1.2381408371215763, 1.691903651881241, 1.3824654150860483, -0.326070524597387, 0.22187535991795587, 2.3140185391195702, 1.4132597488608574, -2.5719323711956785, -1.2077752289611154, -0.8766370467324235, -1.7735363907288477, -3.084787632144779, -3.2888393582359647, 1.670727620557003, 2.451011304198374, 2.3077983230792665, 0.8757135238985267, -0.2329317117205622, 0.27217348817005405, -0.31529545060329645, 0.39034312642409286, -0.7806263447442849, 0.3242953843497059, 1.4087903474170098, 0.037607893054486925, 1.021995456367378, 2.3634409140680535, 1.3662745756154382, 1.9985511041120383, -0.24384122368364342, -0.19086411127683783, 0.9417631398511964, 1.465211781254673, 1.5682362717240415, -0.19063595013018111, -1.8317410378915617, -0.01720264560275761, -0.5091166353088141, -1.8880139651248062, -1.1403536887140158, -0.9831139784152411, 1.8690430044845814, 2.8992234186861023, 4.217188438993255, 2.538907987022275, 2.9749959371386714, -1.0644062709670228, 0.5482250081801705, -1.8947482374713784, -0.4887780517202028, -0.07265560358711758, -0.10845693916956671, -0.16121932568678943, 0.2887453495741603, 0.010023464745147799, 1.1950035487372173, 0.255584594634382, 1.8553481020027702, -0.1515310653631552, 0.8885221732224807, 1.2584920484193014, -0.713879575004157, -0.6744351883057381, 0.10820373449234241, 1.0931835193846193, -1.7954774158825433, -0.7385537463474867, -1.5530865445305975, -0.8239325248770795, 2.027308308666618, 0.7841691572081742, 1.654265770916083, 1.56520848010682, 1.026389466366465, -1.2597952318307797, 0.5306874127011058, -0.5179276640625384, 1.4585457734733298, -1.492743589618427, 0.5060955334537588, -1.3090700819992394, -1.0478693921314097, 0.47787323204369375, 0.3270031388014192, 2.0013219106473072, 0.33199388318982415, -1.6203494098357731, 2.055774354967332, 1.00951444311406, 0.6727781520288929, -0.035640960725984265, -0.7353141476155272, -1.5811743344334241, -1.758312028652589, -2.130511483245281, -1.5369361351840383, 0.7982792242623133, 2.888658743042136, 2.0146830617769167, 0.8115245401289539, -1.2410244406076472, 0.47044339089902837, -1.3202556483038737, -0.9220477691602942, -1.9556185710029415, 0.1537385496787507, 0.018773594654673497, 0.3179707396789619, -1.309314012534383, 0.11216844266041766, -1.5771716898223946, 1.8103667950258258, -1.4678634983497454, -1.183890084350334, 0.4960767369589599, 0.2625342948666247, -0.549597553322253, 1.3011568328868315, -1.535209361241065, 1.1806504194800327, 1.1871202691446705, -1.7209998774702262, 0.2793304657244584, 0.6786352449847994, 1.3277763070947155, 2.7657479803509224, 0.12845058825545094, -1.5748840178523011, -1.5486732865303166, 1.5049769723878323, -0.8975093536416389, 1.0213432300510628, 0.919914068467717, 0.090962402673189, -0.6262191643213658, -0.2079420782327552, -0.3004818506300036, -0.686784438321646, -0.2126066464746146, 1.5474201767251252, 0.00013143376673423605, 0.35212104873415095, 0.5352046826160818, 1.5519854547262404, -0.007933289580369058, 0.16462662938609987, -0.3722148551046619, -1.474540697869377, 1.5225549761608805, 2.0320861358320785, 1.9499550397305154, 2.0402720740766203, 1.2367261697519643, 0.27708606970105115, 0.05675724818578647, 1.7788572569348955, -0.5944724391451877, -0.8491527002259633, -1.0207564789582262, -0.6671316585682147, 0.625645292906886, 1.716342006087608, 1.170625330360851, 1.4176169568545942, 0.7686282911987206, 0.6750679351234286, 1.0189655544572807, 0.1408153612865494, 0.484199281934869, -0.06620771492155715, -0.18044962036188583, 1.6989430155163068, 0.8186325737544933, 2.0806995247657047, 1.168593075140063, 0.8724781918683444, -0.14811889454359944, 0.020188007233772818, 0.05101953048296929, -0.1796776989957173, -0.2308531715326342, 0.17718053627730046, -2.2093885968360967, -3.8583946446698647, -1.1844001994780313, -1.6027279625876913, -0.8347573736751158, -0.7689067240803126, 1.506382915684932, -0.07096029497371467, -0.8244072160818555, 1.3521742142344948, -0.27759024964057427, -1.4074292470843335, -1.0148947043954963, 2.5074354550655005, -1.2631857914750486, 0.8992304364575995, 1.0449485288072158, 0.17230607339675028, 1.5402946696699753, -0.36224007822942644, -0.444993645428136, 0.5651001648801472, 0.315118043267606, -1.5387250772764078, -0.9647486767848568, -0.8888218142961297, -0.9402433768413978, -0.3695357606539435, 0.1598127964330096, -1.0651250632803542, 0.49587379779676805, -1.096041728385648, -0.24552783827076366, 1.9520087545090672, -0.49039849381645745, -0.5868880978942821, 1.4270184941694468, 0.11526985800744048, -0.7242525588079058, -1.3451477151526763, 0.7656751047016827, -0.8918224353835423, -0.5655490113102785, -0.6260485937622182, -0.2913272551650603, 1.6426136351919411, 0.3347694952184348, 1.5196174830075277, 1.2104470730315018, 2.304283117154772, 0.5390601566297882, -1.080339921860469, 0.06432287710935172, -0.6498699073901331, -0.8559939035075348, -1.4132632724980854, -2.090289925816928, 1.5429002843863935, -1.4489991219136955, -1.570104669729122, -0.8765686141451298, -0.6432163994550378, 1.2321423338667647, 0.06623161220097976, 0.5200865131885887, 1.6755084138269363, 1.5718770685587333, -0.7811089923402493, -1.9380846117836135, -1.8135728629294408, 1.0616240874765273, 0.43903918888350413, -0.26826176048863465, 0.30434749076673606, 1.4764231017379719, 0.8658918377449472, 2.668613730638885, 0.1542128904229216, 1.4365495812669384, -0.6091561037351668, -0.8545819458322526, 0.5358617532009937, -0.5440129436175472, 0.6529964722855792, 2.213094927934734, 1.0870887058287293, 1.2776359981904832, -2.5749465243734995, -0.9978185793918121, -0.4987387492649462, -1.14470081136131, -2.0287814117953498, -0.4894223404264689, 0.9685987458955381, -1.478981506590735, 0.2984786458010853, -1.2363470624915582, -2.5570008218476246, -0.979434872009255, 0.586719803642678, -0.6884768179733831, 1.339450178016675, 1.349607534950421, 0.9917913680212884, 1.2327338887892152, 0.48633571613959375, 0.8877815057285018, 2.4144635234234064, -0.5661525485589058, -0.6832011926635525, -0.942461161472303, -1.8586622271956021, -0.40853421068643125, -0.8174907629540669, -0.35302047265636954, -1.7610169102965165, -1.7259202012053139, -1.9342869829261347, 0.19138497287610243, 1.0485186972340466, -1.1791177254347853, 0.39410974390680287, 0.34960489683834056, -1.029643930401533, -0.28711795270569845, -0.6667912045227047, -0.7845908286125696, -0.15896607313596775, -1.7438477834497195, 0.7923986479103918, 1.2961748478666901, -0.12744774649424206, 0.291620225263621, 2.2355404152118252, 1.249793525067044, 1.097035474476343, 0.43480939786488954, -1.2260885634594498, -2.30098339756528, -0.06500837041883938, -0.7773223260291185, -0.06893367922342312, 0.060370075400586545, -0.6736248925528899, 0.15294804725824648, -0.4196994334198755, -0.5096706941311399, -1.033561830034291, -0.5154556084670558, -0.14587850549430575, -1.1879414401820365, -1.347579903869402, 0.2535144731101694, -0.10970004905634229, -1.9314080541826955, -2.4726932531547665, 4.029421556372405, -0.793291633991724, 0.46519000930806775, 0.3420161086294337, 0.8765211442655035, -0.4528470235489566, 1.2344785429359806, -0.820186211139493, -0.07969922511861031, 0.10096830597909338, 2.098600781692269, -1.5365262077737734, -0.6501399197317799, 0.43268046467222676, -1.0478201700743424, -1.4665273170057944, 0.2765723910676488, -1.1452884605595413, -0.5370529220636198, -0.58210802017718, -0.02955251963915687, 1.286778484455146, 0.46806257955491576, -0.7102250203739833, -0.10788533906537752, -0.7160471862058883, 0.5514583951970848, 0.9224732346346884, -0.7815637037345231, 0.182038804046017, -0.09139028484057982, 1.0056097385158453, -0.8021387658409719, 0.7292144523843063, 1.2523229655336219, 2.3184976519763967, 1.161131360763826, 0.28081935759479343, 0.7663512550871224, -1.4885518516066532, 0.5849735158056417, 1.6060912190705792, 0.8706722250730554, -1.0583982159221474, -0.3738568091445307, -2.3308083207577455, -0.006136820446006176, -0.16194602993068077, 1.5141768937645015, 0.41869931995807846, 0.2918653755234472, 0.367115773931886, 0.9665195462543077, 0.14970199627604555, -0.8109232210445646, 0.33074285134452386, -0.6629093780853643, -0.03920865466539986, -0.655292038098982, 0.7238669832466984, 0.7580464896847743, -0.18757667648967521, -0.8894651572464451, -0.16212845197843412, -0.5416299132085736, 0.991392395067526, -0.8148622636213311, 0.8997606251666413, -0.9608824630151102, -0.6384099968508109, 0.5009729050034835, 1.8528684781943554, 0.18094244905787443, -0.21406925095865478, 1.2126915649586498, 0.7381379380497286, -0.24729388040357786, 0.7205789741315928, 0.801056546632639, 0.2873376630886174, 1.4118804508042773, 0.5757118386762317, 1.2022104312182045, -1.0272017361110255, 1.934368913634855, -0.4170231721820351, -0.9078900292008873, -0.32452786225774233, 1.4657318199071787, 0.6754502283570254, -1.3017597331665147, 0.22807910388909047, -0.4724693849418893, 1.5241120699025854, -0.5331529713273127, 1.3645096623638977, 0.8384399900666227, -0.2662532061181037, -0.45020095413916766, -0.28838177296920353, 0.37898805069086083, 0.2812073276509285, 2.169408260919999], [0.6532259101281201, -0.731165844368632, 0.5934318211518687, -0.06271042161133113, 2.0207268242398353, -0.9855060551679677, 1.2585760769232597, -1.0370539028240113, 0.20930913762498785, 1.1526992169701196, -1.477781660173614, 0.5199382189065321, -0.3639916340055546, -0.2426832351693498, -0.12746537588447035, -0.7153098345471968, 0.3654860125000922, 0.7215093080342488, -1.3192468238324846, -0.5313340127314397, 2.098191048435104, -0.36579750647570874, 0.4933446276113691, 0.095724563187228, 0.5387928516947337, 0.3722230188193777, 0.4829365953428355, -0.08711331036932281, -0.6945109378933385, 0.21461002472012478, 0.5204763786558336, -1.0796248978688048, 0.569234403601124, -2.051486386911841, -0.08865908724243729, 1.456192050070647, -0.13497324542394581, 0.09855163817128988, 0.7701854197047996, 0.22322006963913582, 0.6918278633969362, 1.0381138269425734, 0.6870236445424012, 1.221644639415157, 0.09773047420644566, 1.682760272845253, -0.29785116246271054, -0.39644507648455113, -2.388426840375867, -0.4019789489991641, -1.0136725569191356, 1.6868090803417128, -1.706574654561463, 1.2021359000110217, 0.39432165482164244, 0.27975961183845127, 0.5029786017718612, -0.8602359484829507, 0.2944525434730989, -0.8552585728262044, -0.27084417687546264, 0.31333445529879, 0.2572286857180583, -0.46107986949351254, 0.026509456269067134, -0.6799815936881185, -2.376952402502565, 0.47404521929377474, 0.14702018350976112, -0.31309821849986985, -0.47133925543632216, -1.2692060103991225, -0.9250945440517837, -1.055802989332401, 0.03680445124109039, 0.5877045098646014, 0.8671516045690397, 0.014053570153980934, 1.0558962654289927, -0.43479932728267856, 0.9616990337455286, 0.6810485385110898, -0.019765558582748012, -1.383495915645928, 0.5021406971817122, 0.834541616637707, 2.1779301993589484, -0.6670715375580846, 0.5904375536149625, 1.1901349412013131, -1.2244089977793995, 0.05256445776077891, -0.5385579134772445, 2.35220439758637, -0.22919707593956676, -0.41670197267863, -1.9102104127872122, 0.4060912194158639, -0.5382766790419828, 0.37621593226808064, -0.9232924550641416, -0.7286553657491112, 0.47261748082310406, 1.2460258363970669, 2.8489442603219617, -1.9259182618345432, 1.2855708214870667, -1.4121012972193034, -0.5926351194309927, -0.15457199813382894, -1.4681141151631858, 0.011595232068753373, 0.11879213215109195, -0.9455892442935102, 0.8695604457654752, 0.4711723461594112, 1.8885312017574052, 0.317725428310212, 1.117319866159404, -0.7104360312186729, 1.0629735911715463, -1.5912078904012623, 0.3850043245632709, -1.5983226372774662, -1.253746191708925, -0.740175475146037, -0.14096504403340626, 0.9209211228116989, 0.12344365395898478, 0.20445049750223726, -0.510008713211803, -0.9377679133572265, 1.0512960817200496, -0.487922014168027, 0.6528810680247666, 0.6394988631877874, 2.4571054639427308, -0.44703916421841505, 0.5510770864780151, 0.20173791581891698, -0.22404624906416162, 1.7005371384917882, -1.0204489275704183, 0.4548056669637503, -1.2348809920961816, -0.626333981236157, 2.5738613740002694, -0.6319351347678054, -0.6090546008025701, -1.2998786953370542, -0.239279068127872, 0.1524007428615219, 1.5165993866990524, -1.0852223597449364, -1.4383328334424847, -0.681723298269834, -0.31746047718291753, 0.400970821927964, 1.135599341641285, 1.6732128015761947, -1.761673772109943, 1.1532236171752477, 0.8309318130478656, -0.15443765501365161, 0.9247578197855485, 0.1111152019564503, -0.1071423216224418, -0.8011864618891738, 0.2769804068606025, -0.7587346333692198, -0.6813398187703593, -1.1724966098726093, 1.6836220139761162, 1.561195008318397, -0.185642759330665, 1.4509290327608744, 0.23373744453784434, -2.04733940750246, -0.0032178246634281048, -0.16696040433816423, 0.8059621927773175, 0.7820622317146265, -0.3340674585058666, -1.6512226088425543, 0.027745882524360884, 1.5336715597919581, 0.9052934171864337, 0.7850535333924349, 0.5216906795485657, -0.7377747121020539, 1.2070929807676307, 0.39195421700095895, 1.1439564554442188, 0.49473413202238437, -0.4225788464988941, -1.9671268956230699, -1.59186452143157, -0.10625355626847491, -0.7741452352665587, -1.8324179614791758, -2.007712202483072, 2.4482510070245085, -1.552171463073686, 0.16134511685833583, -0.3202556471195237, -0.8810832260991657, -1.0089135397566438, 0.5455159994233107, 1.542116733260011, 0.621678998991949, -1.7061740114157364, -0.5951255321848644, 1.1374575230714337, -0.5302303017576632, -0.7001541215195073, 1.7016872735558717, -0.9597372859637435, 0.5988925843341264, -1.1269803675173455, 1.8922983966071216, 0.07020059593140551, -0.7592014980721037, -0.26363206456233, -1.0299557159029178, -1.175278902892308, -0.6761213979475255, 0.3928615711731236, 0.02432111067233906, 0.8354897877534332, -1.4670403230705675, -0.9680430132095401, -0.06448205614637907, 0.07541731568766988, -0.08275064586926435, -1.077107936290416, -0.8216128952440652, -0.514113741200932, -0.02358422296498531, -1.292988910543236, -1.525916908585648, -0.6526761688211766, -0.05432782803989712, 1.2347780001825477, -0.33972764774140474, -1.195340383826028, -0.11546821217438119, 0.2514063788703151, -1.5246366625442895, -0.22146991605477676, 0.8277437887303265, 0.8060526147396526, 1.8569391499504222, 0.4931836779448986, -0.46735578256212074, -1.5631459905882372, -1.1720996478434629, 0.7103609055826493, -0.26051403564973885, 0.5607631288511964, -0.8785950442247533, -0.14588410494141818, 0.282544140350381, 0.5615888643776366, -0.9159219603555693, 0.1979811547692721, -0.9942633863234778, -0.263102255171352, -2.413758757755765, 1.7028331431189914, -1.2477592423372907, -0.9478352320087973, 0.39465342063215564, -0.15349366848961157, 0.07698405526269997, 0.14253824265794288, -0.10868502947685243, -1.9563995508653458, 0.6149479562535493, -0.3216117900401327, -0.1502479339759597, -0.536172188041473, -0.2947853016320483, -0.04799329082742181, -2.650280671879449, -0.9892718031886609, -1.471966682652889, -0.027520864809031532, -0.41010897326836054, -0.4782126424929771, 0.37648570872322634, -1.2390521881650265, -0.776202219352073, -0.41512979406052974, -1.4647015477985792, -2.240149836198726, -0.5835367695062103, -1.4079781623498646, 0.9906327738918994, 0.43270841113144876, -0.1750064381805907, 1.4662099632557373, -1.7435318643418654, -0.339905281138175, 0.7667840488528459, 1.6528783200417874, 1.329891269564337, 1.4115663238685447, -0.13430172034793877, 1.6041194575234639, 0.34351257200401464, 0.43441905689554877, 1.646848062683751, -2.1702549789635466, 0.8962319086925149, 0.04754936014956896, 0.6010397524780251, 1.8251808236057372, -1.3467724417620497, 0.19395309174302633, -1.2081256622521088, -0.39095748664508, -1.6208777954889149, -0.396615073214958, 1.2975868553937606, -1.4861926880314777, -0.9085805587399037, -1.7428185073995355, 0.8740130445342563, 0.8610384477012157, 3.039184418155751, 2.859435657445306, -2.0631372195788327, 0.4066905924104356, 0.7656407208927892, -0.7773229867432598, 0.3566188745313107, 1.1541244697758635, 0.6400694082206638, 0.958830170367073, -0.55355138857327, -1.6629821417421766, 1.0625846296497459, -0.07756077450302926, -1.3439830862336424, -1.0029039458159816, 1.4588744211041267, 1.9967392639935533, 2.269033322320655, -0.7502184799396997, -1.472154628731522, 0.9040179323407815, 0.8147756829980076, -0.6009107124772901, -0.3848985589938634, -0.9815610171850739, 0.37215843856384234, -0.8582184238655889, -0.5693027455621877, 0.5901310894035539, 1.2867616464676206, 0.36851936760037557, 1.5716970908566408, 0.16761038736237713, -0.18382645837191336, 0.12342990830899642, 0.5920172678131098, -0.549963388295983, -0.9162625265648314, 0.3479141401195536, 0.8955937585946723, -0.6443007003472752, 0.5069299999770837, 0.017190245798157488, 1.1972904408250693, 0.6892131846171026, 2.71956911235542, 0.2584413308975976, -2.7814686666330917, -0.6538455036109926, -0.13728613440894122, -0.04631407966660594, -0.9373660119261413, -1.6583343957130092, -0.10745338049493286, 2.78373405772935, 0.9256201365102505, 1.4122186627573983, -1.3849006527570582, -0.8968497518267222, -0.7263914761745285, 0.13843586636968497, -0.0032863278477934434, -0.8505983932118826, 1.7224969738390024, -0.10241274478485014, 1.7093337564142521, 1.0528234758478792, -0.860002518081179, 0.6056405634728945, 0.5943114033173457, 1.1368269896206444, 0.8759003586597992, -1.4818392041996975, -0.5133450443747313, -1.2396417571497078, -0.622646047962869, 0.12422323681218592, 0.39841944273897917, -1.5836034247086834, 0.13923376657484765, -0.01829434454963216, -0.9776593131714372, -0.5220328708988141, 2.0484644424061766, -1.0465796810796724, 0.16061574588630906, -2.053125245447049, 1.226441432452423, -0.3882049201721311, 1.217513268054333, 1.4866601397682895, 0.27667578630185846, -0.3704679098704352, -1.5834584282996271, -1.246162091026957, -1.4628969435330235, -1.640149398866839, 0.3584059266295596, 1.395121279934639, -0.5113878592341536, 0.22217232829209793, -0.9478330716707981, -1.2048536661817617, 0.6206232930183444, 1.5610108382306016, -1.5999904780147387, -1.7774065928957543, -0.09570167632172633, -0.6281077621691371, 0.9489803876160308, -0.024219308165056592, 1.8472407590949345, -0.9028303926670554, 0.21421843799946397, 0.35195006856655103, -2.1795981718127067, 0.6354732011414328, 0.689612553480352, 0.6179181549133186, -0.9901350928230818, 1.608407887410665, 0.6635872725333682, -0.7414756173123171, -1.5042745908274469, 1.3107266238150423, 0.17416609783788198, 1.5393999244613175, -0.7108136144179543, 0.47212223894458305, 0.6613551214102147, -0.8283811865019253, -1.1564764665873941, 1.4916934642725042, 0.35956841063078016, -0.8913918618358179, -2.0857430964366808, -0.06684425937500664, 0.9529793431350118, 0.056060121211889774, 0.4745695434168114, -0.41988301754600893, -0.05653372180890645, -0.26369219020299095, -0.4027750353277566, -1.4446881783956989, 1.9046140892247219, -0.5358992090894695, -1.2075436175895344, 0.26343040104441084, -1.0052126100580219, -1.3798146369136992, -1.620760245652619, -0.18032847811736935, 0.5646488063870364, 2.1434380130916826, 1.1412068092343635, 2.3448591328830197, 0.4780046976110756, 0.7191037418973406, -0.029776361579742044, -1.0187251214219577, 1.1848517591100254, 0.014333557286476744, -1.6106775778336941, 0.14240454615003836, -1.380847361069801, -0.3839550068060247, -1.1037041248904922, -1.1060006667092177, -1.1198987983880773, 0.41472452562592255, -1.732354974241318, 1.8140920699476575, 0.04237110843982884, -2.32085616513556, -1.2487674223180418, 0.9759794867104775, 0.3375554902104442, -0.3274979433643589, -0.41164454572119247, -0.2983740246160458, 1.5486550407840483, 0.2679809180680586, -0.1267068596298547, 0.4821550387046554, -1.019936476521973, 0.007774018228110043, -1.213082651349053, -1.7066225845725664, 1.0966617999129051, -0.9811949527608379, -1.2868965175683453, -1.5480280860282463, -0.5448167659747815, -0.8842343762407641, -0.009078738190410211, -0.14793579860798112, 0.9687280821624055, -0.5451089199904662, 0.27568159227653843, -1.298863204486853, -0.18638271631303924, -0.4179708741875988, 0.49953858501567844, -0.5917008960000563, -1.5376955464438669, 0.9038079190893382, 1.7467044362088986, 1.102046204604152, -0.38728004601723415, -0.8806678726733063, 0.5747363265577576, -0.826276370706875, -0.4110158087656995, 0.8726634784900169, -1.3752839528989595, -0.4035962187844266, -1.2931664808988725, -2.1161613528697254, 0.5352735074599714, -2.0798565345997386, -1.4085310328080534, 0.02584132810224866, -1.8478740977132047, 0.24723092535979743, -0.267037683638903, -0.08504082355684589, -0.2710782747969678, 0.15744408177043095, -0.7220962801163883, 0.0008518581429859722, 1.5583404439749098, -1.9299467024977497, -0.22175750078817896, 0.1161356049177788, 0.25839073791119965, -1.2137712894994257, 0.4243024513460765, -0.25502509391450146, 1.3023004730720125, 1.2443692521604428, -0.4204786465897173, -0.8034838168880275, 1.4601123610946547, 1.0823146185986723, 1.021477609710067, 0.8400713985657912, -0.33007398635499774, 1.1844440269497079, -0.18286489848909146, 1.8012894234398318, -0.33196795025137094, 0.7426292105728723, 1.097466107986416, -2.568183584998706, -0.26080138163904976, -0.15813338674001792, -0.513947739877971, 1.3149630928717249, -2.303857368575725, 1.0330229971854508, -1.5277147608405408, 0.9808657422709999, -2.27425979271202, 0.871336954078243, -0.6507942643527236, -1.3193667965630214, -1.7838528721702083, 0.21094353074536334, 0.1890239455863861, -2.6025697709039184, -0.6229130931130354, -1.2567425540747057, 1.7391641118082366, -0.5057440675368232, 0.6335554903947488, -0.6262491297010537, -0.6740847712946675, -0.030298844835288007, -0.4748265210110448, 1.3333138476221729, -1.1099989726911406, -0.2767156922353237, 0.7365806213640378, -1.8187230361181068, -0.9686755422991264, -1.436644195121384, 2.1145446646119006, 1.809362978999684, 0.07322150204417298, 0.6948737974744955, 0.7685932270259539, 0.13059396577382779, -0.29790533221217524, -0.7269326250094938, -0.951150005514822, 0.2935148716967802, 1.3314911751370229, -0.5255820489426918, -0.6088078583609271, -0.49550347985615456, -0.8748711807675543, -0.6621745896964999, -2.2785083198354097, 0.33841786189835293, -0.6275383677868055, 0.35082769049063717, -0.23519219331655236, -0.422843288679166, 0.3532526979036432, -1.244807355783872, 0.03541770029241312, -0.26190943955342477, 0.10065342013414973, 0.6316403736842156, 0.0356007045804588, 0.2291275117146661, 2.5288738823463293, -0.6609397021961221, -0.22275680994720598, 0.49222690296965427, -1.8842002793741652, 0.11537394739246754, 0.5588261054976859, 0.5891639729603211, 0.09291911450864354, 2.0864189722345845, 0.6278563674149953, -0.7913160487257044, 0.026112416255233493, -0.8968195604620471, -1.2939527696206614, 0.1705798839014258, -0.8086162856948726, 0.7936797262634753, -0.7713872612741546, 0.8144211414830371, 0.2572866749796231, -1.318986265881149, 0.8846350042437651, 1.6455622188502765, -0.24491275077476704, 0.1934736915888657, 0.9254724838291871, -0.369405068109195, 2.107732881163399, -0.40514687971549285, 1.5409109173617985, 0.7537606889133255, 1.0131414753518218, -0.8759595833254049, 0.5003092844075927, -1.5896150197044872, 1.0355668208668918, -1.2286492930875108, -1.7066070715584176, -0.40839649016126917, 0.7898558413537563, 0.6466382743977237, 0.3147059434572033, -0.2900420602023414, -2.0940747795594707, 0.8064414681492906, 0.7709428926975372, 1.7980301536716192, 0.09294172035087891, 1.0959196065125025, -0.43328591407168615, -0.7342699120034865, -0.01035317042123885, 1.0476253933251105, -1.9842549842471824, 0.16612472680188606, -0.973360781783793, 0.6956106142653816, -0.2615456971146117, -0.5844892291330017, -0.773457045887122, -0.38737665247150627, -0.41453285999578915, 2.1829178678577525, -1.1653915675532, -1.6470397938231416, 1.0112078245803253, -1.2260751457702757, 0.7813491084044168, 1.398886763647855, -0.33282467717376346, 2.341425100800428, 1.5186114182920092, -0.059619375357471846, -0.6002344876028352, -0.8239725680005905, 0.4311627622900987, 0.259766821591095, -0.6664373410976104, -0.6290029005899092, -1.3079841014439022, -1.2854884480405637, -1.2183648026601592, 1.7520350196580023, 0.929620379604198, 0.22827271043622283, -0.29278890093961124, 0.5781984704687742, 0.6640964186036428, -2.2101157864782444, -0.35356347901195057, -0.36276237962699015, -0.608722190554446, -0.5094656187556494, 1.6838996779255746, -1.4459308486398361, 0.26315261039434, -0.015151335117477216, -0.9530892418500383, -2.121088178151647, 0.9041304793886857, -0.8280852784453565, 0.5225990935389498, -0.41041027570702465, 1.273940313622174, 0.5674338076406178, -1.4163926992385667, -1.1410003076042574, -1.4172065937584557, 0.06001247136843805, -0.04335937572271791, 0.8143853818170886, 1.0741270422326663, 1.0335724440231575, 0.29508817192470593, -1.3835222086285346, 0.06739636004166816, 0.308194413907315, 0.3410738091762295, 1.113101587643739, 0.300300094042881, 2.1024580161960116, -1.04932456962579, 1.311807431646383, 0.9779552455419359, 0.3626898842258801, 1.2873769108250779, 1.3462651030467672, -1.8838240261382404, -0.8082395050930814, -1.8442841834840238, -0.03425156673377095, -0.02426404625893668, 0.2429642619777483, 0.471274407728604, 0.9431911724469744, 0.22262592807964438], [0.3445858525013462, 0.07422567859679462, -1.8359887416988938, -0.35269208109208866, -0.554199976639028, 1.0733448330566127, -0.5036891150919343, 2.399612113794686, 1.3802085551675645, -0.7267184343089501, -0.42576402972588034, -2.0493889928551177, 1.2304686417735733, 0.4809630233779401, 0.9935068612849524, -0.6060593591305653, 0.30047574740092303, -0.598777381647208, -0.36912355273544734, 0.7120541889620903, -0.8006665343618343, 1.2069634885500384, -0.8150316623349687, 1.3415216063700661, -1.2039540705606946, 0.876472264751822, -0.3997444858896434, 0.46052361245417245, -0.8285065210353683, 0.2442326958060214, 0.2704681681665725, -1.2404335216264966, -1.5429609289286939, 0.6608292258919812, 0.7978058396378634, 1.3080367786521236, 1.0555587854098258, 2.8222081984258507, 0.10885455434251132, -1.914065152398795, 0.936634974361031, 0.20447194672475733, 1.8363079241806521, -1.7190462681248355, -0.13368808181325548, -0.8106736462462204, 1.0568486082200477, -1.2136377285579307, -0.706248437347713, -0.6148071740213117, -0.00430625567833913, 0.9179212595149747, 0.04554394453131347, -1.1500815905167225, 1.092573741396372, -0.12315460537621095, -1.8591293926798025, 1.4267103283358389, -0.7246720400348824, -0.8436293395309877, -1.7421314712031708, 0.18774957664421071, 1.026481296289716, -0.09593472621672412, 2.0377256761168465, -0.3350423840056783, -0.9523239999765224, 0.9956825520305346, -0.8016414473878396, 0.3652355072200788, 0.4410637161104933, -1.3307113551893583, -0.809983596459925, -0.09749537986321323, -1.0289344145455686, 1.4021541408015672, 0.4909823827930453, -0.24667421338265863, -0.4875475801919526, 0.5477014783539572, 0.3868200264225101, 0.002151299835898609, 0.8640547390928102, 1.1019418746308098, -0.7577509281704113, 0.9379993438684028, -0.06710199151664775, 2.088372543038402, 0.5316793161451938, -0.42275820919934903, 0.08298190291769027, 2.0658500454897317, 0.9120431283340508, 0.4366026153940556, 1.402552430659243, -0.1144369250455608, -0.1903928168044822, -1.7785408911802414, -0.44312015884150957, 0.14454672909311636, -1.5209025891011114, -0.1316467889629787, 0.612574392996391, -0.6992092256841165, 0.301078955420506, -0.22970310614339653, -2.3052373214761386, 1.9100050464922704, -0.2712279094805457, 0.6132542785277807, 1.5024731921038523, 1.1176721702621883, -2.21352354745263, 1.7213883064420408, -1.2158465580150468, -1.4977524140494778, -0.7736382565978892, -1.1433874998269435, 1.4243091790862532, -0.20740254978790304, 0.48132625729512823, 1.1093930175436817, 1.0953984103892505, 0.704390904028139, 1.3729135921106144, 0.8705333253091824, -0.40461776560717905, -1.3264835759111577, -1.0617905874761489, 2.889595400080101, -0.6537566648287562, -0.07960395391730263, 1.1427124817388568, -0.6814696035619575, -0.15305607789271503, 0.4240654149064418, -0.8235209395039081, 0.11372419725681476, 0.6749397952187755, 0.337110010115612, -0.7249226640157654, 0.15383615105902748, -0.06205251632742864, -0.577090617154523, -0.9724951725460819, -0.7496957063602397, 0.42953841932864095, 0.28107587349149704, 0.9688020935446648, 1.0095936036621307, 0.558133727911554, -0.10437462687312035, -0.23569981831972578, -0.0033515536000658956, 0.5832095174839581, -1.788065472879559, -2.42767608979049, 1.1033169478926124, 0.0951476420004826, 0.4985946267356866, 0.1285542893963848, -1.051757182804462, 0.047458305547389154, -1.2766833273553084, -0.3531765436590607, -1.0291556236225412, 0.366798774969689, 0.14740643242655824, 0.829636180964413, -1.2767339516288427, 0.5718852918158717, 0.6983019633519478, 1.3642396110926747, 0.03475822361107792, 0.5669231605880645, 0.00922301747719821, -0.8368428130390739, 0.45212067778487147, -0.6062736965411488, -0.006702536325061749, 0.3072037964699011, -0.04471037457842043, -1.2151878540872978, 0.42577647237860966, 0.7259843264962302, 0.09201003186101527, -0.07338981035308523, 0.08723740651172902, -0.18618824015776292, -0.00843194759561827, 1.7787197305990137, -0.9722262217310572, -0.5834452504743729, -0.1916538843665641, -0.6150446924613427, -0.16831768764153437, -0.8813905448057013, -0.2946916775355699, 0.8341578895153149, 0.8620860750917991, 0.07092088347067985, -0.14843045325996848, -0.023577996032528564, -0.5521267113769311, -0.8808142953409009, 0.22214882255883345, -0.0008131198748396782, 1.8134018358872268, 0.006613805587518219, 0.24924218524796635, -1.0475167349607442, 0.496285665746012, 0.25278105262286743, 0.25077719352971073, 0.9860901914550787, 0.37086319483497776, 0.9032852363250599, -0.5714056680347243, -1.4375000138700287, -1.1199671379795555, 1.098208900553971, -0.06929054905165849, -0.5400435427968714, -0.15498328403847925, 1.2251943639724996, -1.3631735020906113, 0.005860510036652226, -0.7433814977777055, 0.8029024971622966, -1.0026996730441826, -1.1345238690435606, -0.9263982936280457, -1.175842911774856, -1.2663252682697985, -0.3578832413717029, 0.1658102746697694, 0.43846118611343865, 0.19732171839204618, 0.06480718201842217, -2.531631561841219, -0.43230938426818816, 1.2972079290956342, 0.47549680157151625, 1.2181615378876145, 0.7091649663174995, 0.5835540574946925, 1.054221177238179, -0.06164570722544125, -2.103681851187277, -3.7346064965685417, -0.3231155298351647, 1.1442438629252931, 1.1719715481213422, -0.8139916657981512, -0.6816830742802772, -0.9305039218411636, 0.045804655976692636, 1.306256167837556, -0.5724840460946514, -0.2558183215455159, 1.2636467947657943, 1.5803863922096817, 0.8450839231511419, 0.28016779281305115, -0.9229743336556016, 0.4417981621633414, -1.4311107581750933, -3.174871759332873, -1.0183552331499264, 1.393251780397357, 1.0804321150297018, 1.6347061007871402, 0.8321183091556648, 0.9360585163818542, -0.1840284949811291, -1.2464708223614631, -1.7774960579236316, -1.405649046066731, -0.4207500123409641, -1.1351566305156457, -0.5609471011070382, 1.8755239034521054, 0.5659057644320243, -0.8080225503786137, -0.9153197488265988, -0.15816879579580684, 0.41949755661969357, 1.8599355354837113, 0.203196107498875, -0.3916111793371173, -1.038233788473756, -0.3996969994516284, -0.8657335447420788, -2.208275991080268, -2.1942212018124336, -2.2719177077788104, 0.4810449772181662, 2.260857659120325, 1.117053312105752, 2.296660554623491, -0.5927325472946543, -0.41842131283160955, 1.6828697168503555, -0.3293144756123516, -1.5323813070713828, -1.3629173714125482, -1.81943884016423, -0.20420607738213578, -0.2981618394285941, -0.5283244085232143, -0.45396834509457484, 0.36020805945723283, 0.34586835989137715, 1.730144951248272, -1.238602550826138, 0.8495965938374601, 1.740531822083031, 0.42306115882098183, -0.15348670843461504, 0.23281053010443845, -0.6494059146503243, -2.9254513805872846, -1.8425699245173313, -1.1069574090803156, 3.721571147101568, -0.2012853423341328, 0.8126534326890281, 1.9800784342885256, 3.1297101313331126, 0.4174994327981562, 2.400804213955409, 2.5962096158156736, -0.8954064803631169, -1.564670798747732, 0.1607926507584152, 0.070268317715324, -2.0591884256380917, 2.0661646779948777, 0.44322393976198987, 1.6184251092620898, 1.1304635426745302, -0.08796464526680466, 0.3382829988393404, -0.16439514563312782, -0.07085041630798238, -0.9098759790943554, -0.8081516830161372, -0.9364739055347798, -3.5537670701716744, -3.282385834909338, 0.3645344355544835, 1.1065251485939072, 1.671213463227079, 1.1890307204587693, 0.9599153225145657, 2.4216724752821017, -0.00203004080765729, 3.5273244889319395, 0.20415674061577882, 1.9571164353780872, 2.0973283396528313, 0.6073783311912977, 0.39242097176342444, -1.2028213933188503, 0.021853887468165103, 1.0964384426747482, -0.20430548978715904, 0.4124060649100931, -1.2134345547745538, 0.4264406725564011, 0.8688635793066033, -0.9316587358565566, 0.724553201870661, -0.3987321395834245, 0.4682548172856285, -2.209340758780956, -1.0806922738436595, -0.1741509505224135, 1.1634307597545959, 0.996573173839012, 1.6463079168330987, -0.7506814358374964, 1.152427165089149, 1.6337145050675066, 1.8879976662120743, 2.2966192429507886, 0.13327786415144974, 0.3710552761536537, 3.543258849447541, 1.797959088737108, -1.7373423916441433, 1.3591063096667397, 0.17929950066575834, 0.09764730496394725, 0.8619211284144969, -0.05251889729199536, -0.0816061848814272, 0.22538682845440997, 1.174874115395648, -0.7819074503008918, -1.088074958230381, 0.5306260596096711, -1.0408154152211995, -1.626544586328135, -0.4914931190002443, 1.2977825737454551, 2.6571791239669746, 2.2998818176447866, -0.848275618819709, 0.8235571889737474, 1.2140747145609896, -0.09527387088979483, -0.11768800684387251, 0.04721214369980131, -0.2033638735175675, -1.175912804192034, 3.0482041372797988, -0.015875456457610813, 1.3890413425059962, 0.4232713873787811, 1.945790800160831, -1.0551174666236547, -0.5000746505415304, 0.44984524234762413, 0.7511692467936952, 0.5870927423840429, 0.348415481369697, -1.0977261012179824, -1.3358127363676862, -0.29322543527142503, -1.046861509310478, 0.6870462664916973, 0.8556947557108999, 1.2566016620479472, -0.13861822366002588, 0.3778734024545256, 1.2830971476225266, -1.8175098882161247, -1.7363566550123264, -2.0233868796769823, -0.709145299518742, 0.5731735967720707, -1.2686305326993341, -0.8623387760389796, 0.13348826649094597, 0.7819324630283947, 0.39663399212233513, -0.03740001344837725, 1.071830644041483, -1.0567244509015588, -1.4446619467270922, 1.5656554875700324, -0.6286465343635511, 0.16502722729986655, 0.018594214232312615, 1.1318342976172904, -1.0309169291408775, -0.4864203739563324, -1.2027948900644065, 0.5787639251271445, 1.223026788403926, 0.03940619506088431, 0.41847007108369677, -0.15471543333877102, -0.09049491697230788, 0.662664374841113, -0.10379440058398746, 0.07364155445535389, 0.09886763471781491, 0.3005854384142135, 0.7624319288780095, -0.4901092964476635, 1.5931975245061083, 1.1974675708466676, 0.6780120800316045, 0.7465002771101402, 0.2806945184537555, -0.919023996320777, 1.1713806370584119, -0.7075338776531845, -0.28798129870629585, -1.230163518315824, -0.26267328639303567, -0.02505365165017148, 0.3570625704373345, -0.46054112414128207, -1.1545522702501168, 0.5422878754690217, 0.9535159895842846, 2.4149499200043874, 0.2256943331984906, 0.9122500508272025, 1.9869055977542067, 1.0467334863551465, -0.011172449391265682, 1.0896835843752026, -0.18631218230179583, -0.1233754292016551, 0.17864710548318827, 0.2251920343946459, -0.8825567965574354, 0.31540267808772476, 0.8421112465448644, 0.7767680866964793, -0.327391727503466, 1.2294224750353795, -1.33211366380019, 1.747033638180118, -0.7788633326914391, -0.9204005754947308, -0.014316156222074976, -0.4918925675631793, 1.7875528271435686, -0.27686998003147306, 0.5524000808197504, 2.0885055507708477, 0.07919579904866259, 0.8003777068598507, 1.4478004231623403, -0.028040227586862112, -1.781283919158251, -0.14033505409827704, 0.864112326580603, 0.10064842134522138, -1.3740090727417913, -0.6643910485647369, -0.5318110341642209, 1.1891984925850596, -0.5889614005993036, -0.389098959866675, 0.16392196135891554, 1.2661445398868667, 0.7602302942989188, -0.00189642601931231, 1.1792455109687634, -1.5352943099095393, 0.6265747407771748, -0.2540118034076338, -0.20625103033845985, 0.4252410019603912, 1.1715376313903199, -0.7386741552708337, -0.7092106729069153, 1.3593539947253597, 0.7494763970874283, 0.6790801637291106, 0.9674572234306588, -0.7530778189351316, 1.281763685428851, -0.2822221264942909, -0.3219068694065868, 1.595081670607023, -1.4765829152150343, 1.0628886710285792, -0.7017424810969121, 0.26323827524214016, 0.19521725599300746, -1.0842572266191166, -0.4535490382005017, -0.6948357605780662, -0.877377764349574, -1.412037488524563, -2.3794844639710915, 0.9312613906127307, -0.1956864252319445, -1.1664195111640296, -0.2672157104467518, 1.4432711170305854, -1.467913117232757, 0.5426805156792693, -0.6347116145377667, -0.8095018057636957, -1.2761975764013447, 0.7154794202721795, -0.7308346271279378, 1.0705103627485366, -0.03898845954275744, -0.8361089739867402, -0.15685687860613484, -0.9787981307240675, -0.7125065391033895, -0.2929662938560013, -0.3509064879378038, 1.3538519651865095, -0.3094578660376377, -1.4290978842889392, -2.7260016769524857, -0.18813106943010502, 0.6493199375366098, 0.4039030816075682, -0.37668392889712987, 0.5400651179567795, 2.368773229460328, -0.3818416247847025, 0.717016915079005, 0.5281142510609986, 0.9121894916243621, -0.10175219364734625, -0.7123915045400223, 0.8668991296241753, 1.3792765868492913, -1.126602023354348, 0.3278071091586269, -1.4637595797986283, -0.1865038026678219, -0.36646417631613715, -1.3541434103878551, 1.1103017852119281, 0.5845497479381351, -0.18713769165726737, -1.037756742696573, -0.6621252591023016, 1.3551453324323333, -0.3019214529706867, 0.9417953919211434, 0.6230795203001653, 0.4073188215105593, 0.9156528799221553, 0.18661574481661933, -1.0094638226455956, -0.8554430881028671, -0.27735513069220824, -0.0998571419708325, 0.7464702494631135, -0.827748851799863, -0.5161899163112331, 0.10869500665876351, 0.30632584295547244, 0.21755252770170755, -0.35960403118549406, -0.13770075667050224, -0.06542713159466138, -1.9336750896299268, -0.7562641804569786, 0.32470958098006697, -1.3198682063028202, -1.3643025143111482, 0.24529159295765374, 1.4128998474023462, -0.9512448566212066, 0.3956850283651122, -2.1814024971410704, -0.3420188255834522, 0.4664517521942829, 1.08517490348556, -0.7433775768252051, -1.1690310969870372, 0.607850733374327, 0.07302795357677346, -0.1614737004694045, 0.1871653827413367, -0.45667148668725566, 1.8147643691094746, -0.4670244753218692, 0.019975417494306574, -0.14034449378021724, 0.11699424893740872, -1.7373342200527349, -1.6600813221357626, -0.4140963363201469, 0.12169306865273061, -1.2467304823720762, -0.39714228647326644, 0.7079774516415511, 0.48951121518418445, -1.8557350631378786, -0.14396627459680347, 0.3834757097019954, 0.9575482980597558, 0.02577336327675427, -0.34792043704659187, -1.4167164578676197, 0.20678384540710326, -1.2899685143010582, -0.7100220556173091, -1.4014150298690502, 0.8363617718271817, 0.676841551292464, -0.23347311697170042, 0.4085607515587774, -1.055656726573333, 1.0454580207468553, -1.325115703619352, 0.4175008336933018, 0.4964516773526742, -0.8412105399457114, -0.6061351644167905, -0.7744656244438027, 0.46447930473811916, -0.38333284563785797, -0.15209765708005496, 0.6065167960962131, -1.7154717021060308, -1.094115499725999, -0.29770043289361836, 1.458594807135593, 0.4619612936917521, -0.3125021843237004, 1.1918083106101718, -0.47916835626330156, -1.2116723415884767, 0.5978019779790616, -1.2039932223938778, -0.9873154298465385, 0.2490553395511564, 1.3219712816572058, 0.8010108606807541, -0.6261345781590202, 2.0416566421288893, -0.1508050430786677, 0.7880125764069613, -0.28208721428979483, -0.6614360613571723, 0.10269699599457935, 0.8086119300526273, -0.4435042334340746, -0.9819761065720062, 0.3227643048608164, -0.6130468843452231, 0.7211036207201659, -0.547122388450304, 0.5091853770652012, -0.2239784944008635, -0.1766250511103883, -1.0516688158187328, 0.5193925151288883, -0.27357073893570377, -1.2038469207384686, -1.0842598717902825, -0.5445326013112275, 0.29098582434598724, -1.1385979503778652, -1.4245964708303822, 0.3523044738431995, 1.4451899400582089, -0.012566398500367785, 0.09562259965832742, -1.4466823749351354, -0.13875259284657568, 0.5239438094734123, 0.7802476522075025, 0.8252781922194484, -0.4055145511415987, -1.5380849128915972, 0.1032624208380349, 1.1187500696966681, 0.8297700012105872, 1.6194708211273225, 2.050804295547102, 0.2304938109264528, 0.8486103257896485, 0.5198333225175543, 1.443402794309229, -1.0993862331001059, 1.96005566573529, -1.6198915036027772, -1.5796983144600039, 0.3804272711213733, 1.2853781182857653, -0.9313841832904953, -1.192808412113903, -2.124243196289679, -0.7287526989800266, 0.018473060477433696, 0.381257952627755, -0.04668718961332438, -0.6557571143878628, -1.0606814721374758, 1.2291905935747027, 0.641680300340645, 0.704383492086215, 0.3919458492554834, 0.02825229026913006, 0.5323973950158282, -0.11911867567123183, -0.2563407501872732, -0.8161606765771502, 1.8646176932064467, 1.9673242388787844, -1.254717800921243, 0.18239936400820328, 2.5321585164341074, 0.35538540352217396, -0.9586524672497595], [1.1499520830112684, 0.9937115619149175, -1.4199237683306358, -1.3312087077995696, -0.6997689425421162, -0.5850774033692654, 0.09591552698421806, 0.18434775314098353, 0.18055024747229587, 2.0495110848049123, -0.30750910578983237, 0.21370660884046475, -0.3567091711578608, -0.10742284547023936, 1.1748289961501073, 0.13253691522808264, -2.3020162872226626, 1.1566155341106872, -1.1966251474029936, 0.22847252720776146, -0.7421273754647786, 1.9841894798238355, -0.47202744903716143, 1.2426725657585116, 1.5297417007023095, 2.1284568465861997, 0.28897873934170343, 1.111285059266902, -0.9772008000797374, -0.3640455283981132, 0.3380198110493607, 0.40859443214046326, 1.0481036877712722, -1.3685210585006702, 0.7603791938794056, 0.27158570355824846, 0.4360125655235391, 0.7206265805950918, -0.8771401252313162, -0.23432787430488666, -0.1890260908097684, -0.31210641941032585, -1.9206096372675594, 0.06520485440081769, 1.5801230699466733, -0.21592746951507863, -0.20562999603015703, -1.8485266498952768, -1.2108726181032596, 0.12689443163016756, -0.48017666523858255, -1.361571161917494, -0.48664294184625173, 0.9565751643504293, -1.287348604702699, 0.027953670055706835, 1.308831243863199, 2.1771004778923593, -0.9271122680826677, -0.011045070867392658, 0.052814172679145274, -0.7415436455466429, 1.1125314499328012, 1.887199886197517, -0.5387297568906393, 0.6257544843366686, -0.42484328298473273, 0.8154409931422956, 1.1935792930200915, -0.13674106991507926, 2.132707237939452, 0.6504129762007302, 0.5548329305166753, -0.7931691436229954, -3.078926054694332, 0.6038453867930638, 0.008685218502141021, -0.3070739834318793, -1.787540840623188, 0.3535401335212314, -0.06206147114618117, 0.3422461047286138, 0.18907787243464058, 0.22663863904103385, 0.39615279753629595, -0.3355660950484481, -0.5400606765996886, 0.6843242356582575, -0.10608138363743144, 1.361854899193063, -0.960706755565614, 0.8375299916731593, -0.5486565101870792, 0.10724490508487013, 1.0600339911313168, -1.3322325892652258, -0.6858948155544707, 1.971030581178671, -0.5719936321359277, 0.5184073772815345, 0.7691225939355354, 0.22567134425162086, -2.0085641118103563, 0.4501178093949051, -0.6942455558701512, 0.12964266468017605, -0.7766765220832742, -1.9654156615438059, -0.8933460409294988, -2.5808694007907347, 2.2268410671372734, 1.3383767628403607, -0.6836663063788065, -2.722240403299269, -0.10560114669816915, 0.5499713961014059, 1.060293272884227, -0.844022840787139, -0.7343266918119115, 0.6442819172826976, 0.528191329568704, 0.2158995485678628, -1.047518640376411, 0.6260152826865967, -0.6968666361183123, -0.7121817599738205, -1.3639631385812077, -0.8006116735184864, 1.9209571146089572, -1.2901445192021046, -1.179882860704755, 0.4724967335079532, -0.0675215437510189, -1.3385841091728619, -0.548077677228016, -0.5655707618869397, -0.13326087087961397, -0.5878835599638321, 0.1898777073144652, -0.8244640895406516, -1.2769986765670223, -0.3658923644263132, -1.767141165241849, 0.6372421544015667, -1.8829982124635303, 0.7270798682189343, -0.6420814660505482, 0.9719092042143391, -0.988887026618984, 1.0389290275410303, 0.940712402031732, -0.9949996544438715, 0.012380349329448084, 1.314025236876505, -0.8216719823834654, -0.7351231860235924, 0.26330440900806945, -0.037652365748331244, 1.2445131280614556, 2.8767122365282995, -0.28430322229229693, -0.32957380870613645, 0.9811667672439905, 0.544258552372304, -1.044978778082894, -0.763859448622545, -0.7547565851763197, 0.3736464056047256, 1.4776659072464844, -1.2053892822993009, -1.6178789136302179, -0.8760114949697653, -2.0595798951342488, -1.6102834229423935, -0.22193041491089047, -0.6633035078818589, -0.6930631174672651, -0.8872082698658678, 0.08596626938904804, -0.2952673296421709, 0.2566155519850146, -1.1798489296029397, 1.1885675670369156, 0.3829072297019304, 1.5816992633914024, 0.35366282063052673, -0.08881158153374397, 1.3753455598187299, -1.1518521747412875, -0.5927271150444037, -0.40937002851950116, -1.2774262460479295, 0.16063801218461068, 0.9372145239619212, -0.6146393548443759, 0.4265915627291954, -0.44807541344726703, 0.24789539933766383, -0.4160387265470201, 0.45984538874641895, -0.33913558104492947, -2.1906279253552805, -0.9569923996146518, 0.7653218650494844, -1.0250830176882595, 0.4417120316396932, -0.2702284316503488, 0.22981420057381777, 1.4128662944059796, 0.6440277994658844, -0.9302670908471384, -0.5162365287720158, -0.6684739953878438, 0.5369728721497361, 1.4159601649232862, 1.5610597148041914, -0.19950448767326565, -0.09773787037468207, 0.3900319688417695, 0.6102884109332903, 2.9253549058229864, 0.6719069388694121, -0.23727239140732703, -0.7804526297599366, -0.4660679407026242, -1.3018865906003876, 0.26842231161013314, -0.07376842466824121, 0.07435862875330845, -0.6649380526964366, -0.6067286593176615, -1.089505311408025, 1.3626946803991395, -0.06893110679988876, -0.6016493931799103, 0.9135464627111205, 1.4644066480130156, 0.5223075484274996, -0.8941695056311862, 0.8208108924474807, 0.6010165902077379, -1.5221525015780548, -1.0883586541192856, 0.9766998608124391, 0.8697945752005026, 1.2377653312438575, 1.4721015026671465, 0.5260930312621789, 0.878284514041648, -1.1742163640907026, -0.3384089215252997, 0.5099723651288776, 0.24927915832520575, -0.25997281294681485, 0.23173413880012375, -0.9359612525297895, -0.04775821259916327, -0.2783385078815932, -0.5391715203451528, -0.03262925039644942, -0.8970981942885369, -1.537035641479145, -1.1485364167839842, 1.095949740024664, 0.38847686166982603, -0.446700796720517, 2.381225228579518, 0.21792887686386786, -1.1403920493538415, -1.5406583349014957, 0.46514943842196504, 1.34888982188916, -1.3173000352166375, 2.1488978908306096, 0.48191017715402706, 0.02664108784074816, -2.2063837114487805, 0.03219203653478971, -1.0405402727096846, -0.7555102260358504, -0.7047338362728996, 1.1499671008252286, 0.8573877390249481, -0.4246180151301176, 0.03439903539690522, 0.14722320361512967, 0.96820655839848, -2.3932907649270647, 0.9143210187701571, -2.039006840988936, 0.058068642186655604, 0.8165026841418886, 0.7374719042036432, 2.5711882115944964, 2.273379893427883, 1.5753862126718299, -0.20387639934442872, -1.5987767987375854, -1.312553745846738, -0.6232943694854479, -0.04174697369972183, 0.6347776127258826, 0.3878889169297258, 0.6087534470405679, 0.12254477199849385, 1.1168593301116732, 0.8607357417444388, 1.1994332715380958, 0.5490043234186687, -0.09249647894657916, 1.1929801330906291, -0.7980519884610836, -0.5110850628718195, 1.1390963177151356, 1.6277165579498236, 0.6396245005643206, -0.2858907099356953, -0.5664039374583508, -0.8918050918142848, -1.9214950750574007, 1.6088824838274405, -0.2987314222475587, 0.10176685988368547, 0.16211939159675376, 1.3061671041521283, -1.0216433348383265, -1.1360700888403683, -1.3331568059143768, -1.1884163005785617, 0.06884095598524628, 2.6097857469688273, 2.4925177948359245, 0.5316040454191212, -0.7642041009946067, 0.8791877115369202, 0.9791491700705868, -0.27520448750935556, 1.0343738626413541, -0.9572203384380635, 0.3983594101580779, -1.489008222082709, 0.8925370136325683, 0.07269393137276903, -0.26070641420713647, -1.9567260823829498, -0.5457755227504797, -2.1369112515047197, -1.9173638835690379, -0.2744682912532676, 1.3814002850847245, -0.5437187949548064, 1.3985892890105802, 0.06367967871557954, -0.28752099068139314, -1.9629189691925935, -1.656851382022178, -0.2524401425745042, -0.7506535944738504, 0.03929215588405822, 0.5783368041159932, 0.2980135757740956, 0.6562994135416684, 0.9674097167744324, -1.683672134915447, 0.0408408994797295, -0.9558584918976178, 1.3378907088627219, 1.229687787551267, 1.0363377191611212, 0.27092477097689804, 0.24369942148367185, 0.23768965212692725, -1.205658431699582, -1.3413017600143997, 0.9062969569773325, -0.4312883304357083, -2.067267349829026, 0.6627601372448395, 0.8901252140750192, 0.08673826346861581, 0.27122057857615206, 0.4206156326391278, -1.4727417980982875, -2.514619904294331, -0.0653863249113538, -2.5292440922004036, 0.6213774496943838, -0.21839111059620972, 1.078042424884641, 0.42603740094753045, 0.7188458177686053, -1.1013096188209734, 0.6368097152093241, 3.0501765387384587, -0.0626145305990295, 0.4512669311821189, 2.222923132879155, 0.5502981493118814, -0.44931549720085484, 0.5850822475921955, -0.5594577059274133, 0.7300734531569836, -0.5210243941371179, -1.9977364210883108, -0.4931022822428283, 0.43331391438286776, 1.5142142856860252, 1.293771818083217, -0.22928247531196316, -1.7020278471467534, -3.558776456941516, -0.9445810742690777, -0.13938573050802544, -1.3755847483508477, -0.045018279809369614, 0.7123663128633375, 1.1127292422148678, 1.407251861214285, -1.3312789280100166, -1.2369986959045693, 1.5666707364870676, 1.4728603391444353, -0.3405138486734011, 2.5528016192939598, -0.6575601023097427, -0.46279479849892197, -0.9241858618404221, -1.8687600111827296, -0.4638572255959098, -0.1901822082336669, -0.6223460491634486, 0.9706219960078609, -0.5098428726626512, -0.12433545708303505, 1.4665671249875185, 2.310575917019234, 0.3696810968470416, -0.6487450154423113, -2.446016588132315, -3.08950732128165, -2.1076893989436747, -0.4782428782377122, -2.047666701755928, 0.32843726750794755, 1.0788067470477147, 0.5538781321885219, -0.5243833812180015, -0.608616369063031, -1.1398843762829352, -1.288375589779139, -0.7164515247046805, -0.6132152225787972, -1.6882922212521612, -0.07385476538039483, 0.9691675656250145, 2.1450667443717615, 0.9602953411894748, -0.8806484593993884, 0.36399811013422395, -0.9545155760071514, -0.005045174845949531, 0.04980605562392128, 3.9401882657982963, 0.9091940047344169, 2.380506584519679, -3.0703499672404333, -1.3266042149415942, -2.319405082664307, 1.0072377189526684, 0.625972347247333, 0.2639414740314528, 0.22969958340903807, 0.9518441748018647, 2.389879252709584, 0.8349382689062227, -1.119158713906892, 1.68551042117441, -1.9139357124371663, 1.024334268989776, -0.7013385990794574, 0.8114276555737971, 2.085764785822878, 1.1513329466474533, 0.23177532228774908, 0.8303829414171365, 1.845052340658056, -0.9061061331676965, 2.2855893220441694, -0.04503761934702993, 1.181752695984003, 1.5622284785401777, 0.8298199353223811, -2.108216289297786, -3.326292335116829, -2.463713447720605, 0.06834475871091704, -0.7300383802428156, 0.23960855645059934, -0.9745571846908171, 0.6706558635236015, -0.48871549015581445, 2.9061558565253653, -0.7882360490223733, 0.1710612802336134, 2.8746119756542634, -0.44233173296106104, 0.7953293275122579, 0.032516775392986794, 0.25802909551036324, -0.15659280915098084, -0.1138969254000077, 2.4193794920896927, 0.7800319037931377, 0.6927874462028899, 0.15677886816955117, 0.5311581077104551, 2.563326286143398, 0.5068107884762167, 0.6706750154825273, 0.05417033398133358, -2.138488874837784, -2.5796508517655314, -0.33375698558795536, -0.7195153702808683, 1.890059303543778, -0.16803563797929277, 1.2303120286412295, -0.09353309888474524, 2.1554137818596217, -0.5249664158631908, -0.6236641631094569, -0.28419641241875065, -0.724518200616563, 0.37134247819346056, -0.0996525885643387, 0.10103790932543123, 0.5607446766582643, -0.5611799042065513, -0.11282790902728013, 1.6058890400783035, 0.4560449417047183, 1.6989299558098032, 2.173677392296624, 2.077750382960837, 0.5722594431500463, 0.01539128724050577, -1.4080826250009573, -2.5331975421776973, -0.44578394027459856, -0.4138140413780394, 0.5256146227928734, 0.6687866707479153, 0.5346856174459945, -0.3268387817841866, 0.8123031187092499, 0.6302760748050115, 1.4575159079129758, -0.940653872737756, -1.9500417103971075, 0.7583939099579086, 0.9946013888647771, -1.478951116545286, 1.3882539140043915, 0.21794397319693284, 0.7918609263831036, -0.5328005910903731, 1.4800900511883104, 0.536969577471839, -0.606433933366437, 1.573976577091589, 0.44775895380039427, 0.8497634697979066, -0.4927446087138184, -0.5238078723535261, -1.9041576900429584, 0.1242005495005115, 0.6810665398948923, 1.0027257755881323, -0.17694587515747504, 0.14043287909726565, -0.44283579562941033, 0.281712031951798, 0.03903833408786346, 2.17294936652417, 1.3848096886154475, 1.6496199844660067, 0.956349890972881, -1.1890349693828972, 0.2500623310651055, 0.6334018157200796, -1.740386707999644, -0.011093129893745668, -0.35052597560615817, -0.8387390980350976, 0.9680623025499066, -0.6248972780320192, 0.3313443840145551, 1.1630708123591953, -0.8033299430455092, -1.3067892511299533, -0.5065972750824203, -0.9088719010810388, -0.047818284129476495, 0.4494782321194856, -0.9043783586739457, -0.07621268404224718, 0.48242317873039836, 0.6645744821581165, 1.7389041315023774, 0.43317404702580026, -0.41678921788428197, 0.2649283372340896, 0.5350078720711082, -1.6017985482745487, -0.599644502916786, -0.24626400944311466, 0.9821059180656811, -1.4091956811953696, 0.6479564329163551, 0.359090959516051, -0.17067768994710686, 0.15190614921157358, -0.22542061016510648, 0.8302070521640612, 1.929598511621806, 1.4754075838427676, 0.42495355933965706, -0.5018312031182887, -0.5887230270705104, -0.8169007832851347, -0.9244503719060134, -1.4677716318041678, -0.1097549647277852, 0.2891559553879037, -0.01634846804628189, 0.6420883815628265, -0.15400230020122102, -0.2576010254236804, -0.14300528441200028, 1.748145174245261, -0.35647033923881616, 1.0977298073652404, 0.6576816919595898, 0.12811067957910602, -1.7813065197565188, -0.5964780476536848, 1.822797465889785, -0.26521758058104283, 0.7117738866078355, -0.9468296893824056, -0.9547238324440076, 0.7783270494857333, -0.36415860389944, -0.4312163086987882, -1.1223923775646534, 0.6340739777455592, 0.7690484154473977, -1.4416353554782997, -0.6228863129246949, 0.5345230456789685, -0.6124221952615614, -1.546596074485465, 1.2038019422082298, 1.0959012834099682, 1.6429845078097451, -1.0846099243119933, 0.9135945622275176, 0.12586866123210005, 0.29545338570779595, -0.6128229089016815, -0.9412884176564265, -0.8827862712421091, -0.5265189206368863, -1.6083574135258378, -0.4299560373797144, -0.5278700997567682, -1.1691167044937687, -0.19557814691992462, 0.599961667796655, -0.8114040766858489, -1.4989232851927667, -1.201809182642257, -1.1365266419201636, -0.6679209932051209, 0.24781009205285745, -0.9141932085983154, -1.5566350084933882, -1.415245761809944, -0.13876197080649563, -1.2215920116469046, 0.4842914778357311, -0.22498005509590502, 1.1526071452921955, 1.6012895559459654, -1.1128954674777904, 2.044932802060758, 0.4620676919826471, 1.3212380714754188, 1.933195726791082, -0.9500729267821579, -0.714099933067035, 1.1956944717255042, 0.8511418133109904, 1.9373297226864525, -0.27034405470745626, 1.3688803918946815, -0.06746548611229947, 2.1295821186345663, 0.29535458795873465, -1.82138146458992, -0.848445815812398, -1.6342117212690621, 0.038250019946044884, -2.0237376513208987, -1.0717343326700453, -1.4203117717416591, -1.059797512597047, 0.29576320409460727, -1.9780189501909986, -0.975688612021564, 0.448551293625329, 0.016192438908024284, -0.6520530958423689, -1.5973514687187629, 0.2970318792337553, -1.645163617121531, 2.9873052729862026, -0.9478510464589116, -0.6203927415900402, 0.5218063495278803, -0.42343173850761084, -0.10508835364839898, -0.41887535126144604, 2.214919746429589, -0.8872694497576294, -2.170930448850266, 0.16663548674428438, 0.15797770807653463, -2.075098757436082, 0.6434128315206937, 0.12542400080330288, 0.8687499889367426, -0.7011129490122878, -1.0127381807035847, 1.2324100993942777, -0.7503221389886148, 0.5343241319517545, -0.3811728279827894, -1.3296632383436575, 0.6738419854102077, -1.2913838601394294, -0.5275383233570706, 0.41554699507720966, 0.46151728919417906, 0.6728016101665494, -0.7994514682394035, 0.30590038284153753, 1.0490440229345783, -0.16174900604933434, -2.09685209353808, 0.0913359802557299, -0.66936581472988, -0.17306590600871505, 0.24805921985605778, -0.4676432693196242, -2.205717882396347, 0.011886011865693989, -0.08713665670619829, -0.04871681039623176, -0.26244356557336196, 1.0238490062395649, 0.7209994225528101, -0.1928151150973687, 0.1530431620125759, 1.3942800977807375, -1.2456825471462665, -0.956497733120884, 1.552142786136991, 1.0735029351470922, 1.2469162793012396, 0.7475468249744279, 0.9790875679318854, -0.9897410564232842, 0.7763231744459381], [-0.28153498378331465, 0.14574677111961643, 2.0861934451475914, 0.02641525801659111, -1.0449551002511364, 0.2534511457664445, 1.7577396513991788, 1.473579649074138, -0.8433963361030293, 0.5271929855673201, -0.6476844891136573, 0.5302822310445856, 0.9279562576856236, 0.6980101392545289, 1.1798329685975757, 1.1599682960125044, -0.07342129366642913, 0.5128180379871515, 2.464561726704299, 0.7807564278618767, 0.5931622893795272, 0.49204839106443843, 0.8636085902393418, -0.9311043858933739, -0.9421798165218244, -0.8729887559918788, -0.1705909720492642, -1.604006586581195, 0.5202748220029257, -0.607027613102199, -0.03423465799421208, -1.004050652880337, -0.2030149517019, 0.531511153993882, 1.1824398201505866, -0.053806872929481935, 0.4962642179597087, 0.5113163620813194, 1.2130831937273052, -1.4726706401402054, 0.7575203792836537, -0.5505055478942474, 1.2017140927123005, -2.6463141656117455, -0.3482792410549209, 0.03970119642278593, -0.15406557016517136, 1.2489841798449866, 0.8504480285996983, 0.8244659319747942, -1.277581273155699, -0.28158375015202075, 0.462562016476158, 1.272879677897622, -0.012507557839202462, 0.39654015522825914, 0.954104989562019, 1.2436234940354567, 0.39986104409488443, 0.7431384054360305, 1.964123316333517, 1.0527844146206837, 0.31161276649294767, 1.8588197380669573, -0.22973319233675915, -0.09417470294980601, -0.44800359726147126, 0.9727601784868852, 0.5814123747368757, -0.6109208097988885, -1.4478738740827644, -0.5216926698322645, -1.0893521665303059, -0.8805214669650611, -0.5038213917185431, -2.4819392572785386, 1.0773743751230138, -0.8614038018918212, -1.7649165451211146, -0.3992492066113288, -0.23218623204349298, -0.35935376254846124, -0.1470373448601996, 3.084575750232548, -0.12192418715159173, -1.5332997685816505, -0.24128047418120377, 0.16225653576777427, -1.6480637704262957, -2.078304353854139, 0.8148966373351666, 1.2113207822591678, -0.25602702732495614, -0.37437371785400664, 0.4809033862134773, -0.6361276488700613, -0.686801841231172, -0.9442243223272685, 1.7712314514161893, -1.2057522470745565, -1.7100901170222567, -0.5905938449898079, -0.3962369104485947, -0.755013935516056, -0.6629664918744631, -0.11507064672586279, -0.3084495781477584, -1.201328695152896, 1.0695708942980353, -0.4318112094622389, 0.18605155781117483, -0.7929503639346831, -0.7203047020160317, 0.8508923342819952, 2.447408880674613, -1.4732782836237777, 1.6182075650569034, -1.4324119029677302, -1.1286840226810253, -0.7759626546778762, 1.2381248998057195, -0.24583889401916184, 0.03982594863854016, 0.747140066516573, 2.540402332391812, -0.17061235084585544, 2.052413283235266, 0.10462578857209709, -0.22786574886768418, 0.17317640986080346, 0.4413443280281034, 1.7134147851457517, -0.03720291030807125, -2.0128778739185904, -1.9441589209691077, -1.3041536052680074, -3.154842344824273, 0.21208110967683322, -0.8758796370046938, 1.3807601328704386, 1.0096481200746052, -0.2591761693373581, 0.9243899556167882, -0.4400556803786567, 0.18015306168387663, 2.0526624597455383, 0.879394176181241, -0.31897368861514397, 1.089131223279283, 0.733590761248567, -0.8025476433400296, -0.7724224261990806, 1.0982629272094953, -0.04546801432350723, -0.031565878895434454, 1.541733926936424, 0.2076019890512726, -0.5820726242336752, 0.5878479986888234, 1.4832713311661267, -0.5229500115494223, 1.9338225479856415, -2.5928847127351786, -1.9176385307193113, -0.1710970020836872, -0.5169846096258, 0.4349897624567819, 0.04489603701654213, -1.2744852722208555, 0.8553642307991626, 0.7587013105850056, -1.0027814442432263, 0.1425010620370744, -0.4193796266226208, -0.7599431496808458, -0.731873691635257, 0.6751790497839907, 1.1878853264466376, 1.0814374448771182, -0.11982513419603527, 0.4508297549407158, -0.23213955243550322, 0.2609515644529338, -0.08569130918406206, 0.46173168702940887, 0.048988550469127666, 0.9768343897628982, 0.5777820410856247, -0.709619264127926, -0.5376067670955526, -1.582287579624385, -1.25885246806684, 0.05718271003114017, -0.06837844974794297, 0.9509212836498667, 2.0108994887314977, -1.8581763828623068, 0.8012975765430975, -1.8970555338061785, -0.10479647575410268, -0.895753896944187, 1.602420728235546, 0.07028236173285354, -0.2800039848029361, 1.8478702589967695, -0.2779102283204497, -1.3126217651116872, -0.014034048340892058, -1.732537049090564, 0.5826936680044262, 0.48816074870033543, 1.1895089873681466, 0.9601541702619699, -0.5938442104473409, 0.34768203170106937, 0.3395854875247208, -0.15437542944595198, 1.5902190185938196, 0.6708238707102204, -0.3601489601963462, -1.2979405143086746, 0.4621263235351481, 0.1895426395978946, -2.244102661302051, 0.07971034726937463, -0.47816626304607907, 1.3790625202293278, -0.030383247072016752, 0.9742183232352326, -1.4400833648193876, 0.5029922336322424, -1.7153527349755702, 0.8585856462403879, 1.6018675726221343, 0.5963655958535732, 1.4295253038752307, -0.3835806582902119, 0.22019746090486367, 1.276844475955316, -1.2952197666437493, -0.21197855250043854, -1.426506013892391, 0.7003323238023829, 1.1428895246166049, 0.7071840439397041, 2.0617294740017122, 1.8196305168614686, -0.6408204126117064, 0.21487341742755037, 1.9674382608684389, -1.466611046145217, 1.2110026382856256, 0.2231373588837351, -2.4307973222814097, 0.39988955396283615, 0.5000272522453244, -1.0588921127601705, -0.19481032614133914, 1.2794067322537575, 0.22124304331616268, -0.8344270785020451, -0.45062114999954506, -0.5919093625189827, -0.9114064321223357, -1.1300967464236982, -1.427439528882653, -2.617738328930047, 1.4749697208414672, 1.4586802746426144, 1.5426175656759304, 0.7997795454423411, 0.918389274407978, -0.21171541737426905, 1.039354140985599, 0.4965868443555434, 0.30702213994636735, -0.9185636251257638, -1.157791173074023, 0.11427251383313015, 1.5430400893926137, -0.43424014937788497, 0.6446396426492398, -0.7390784862182153, -0.1203321323540498, -0.1907845924807937, 1.6130121733403862, 0.8725379280545641, 1.0515491169278834, 1.7182013252820347, -0.049941007224903494, 0.3754263753939194, -1.0116132355002638, -3.1069792757558106, -1.8179006736131784, 2.3908986977216977, 2.2578675891995292, 0.14074540487165446, 0.5716474141341874, 0.46238236009129946, 2.0424011374688305, 2.5436485560673354, 1.0652460890648467, 0.6099347500628318, 0.1421328657644673, 0.5741450517203053, -2.9108574379010976, 0.1817914821852436, -0.490843914184181, -0.2624678726219348, 1.636503483352872, 0.41868802236405334, -0.6185801278763927, -0.9617560125841844, 1.8509784115326706, -1.7310031199951048, -0.27582634960390195, 0.2627555035742594, -0.3529070736294345, -1.895191111765059, -2.7929522980658845, -2.0290243476213536, 0.17987127325957042, 2.4682349590332464, 1.7244242053972647, 0.19163665165964075, 0.18341123448715715, 0.3503142366398098, 0.5617623800271299, -0.3852928545641625, 0.7295235971211299, -1.8938782114957406, -1.9963514861360616, 0.7268622040309317, 0.4872292198624762, 1.528441817474771, 1.1893544636403708, -0.48184229341518237, -0.3961583170644303, -0.6639504641705148, -0.1995933739434185, -0.0855915640634, 0.18200539538442698, -0.9311126156915467, -2.632377480025245, -1.7105275664010928, -1.8376166113804624, -2.303091854798909, -1.7626991324852646, 0.6890332056175236, 0.8781996219521692, 0.7444762403491634, 0.49498370192094904, 1.2049358236952534, -0.11034194638877234, 1.4382434461507418, 0.666044757121461, -0.3781838810922432, 1.181731684247412, -1.356119182005966, -0.8758035044078776, -0.3140425334389304, 1.350930726064937, -0.6123921661924951, 0.13016496843985836, -2.806304478089211, -0.7480516311215288, -0.12678551878907854, -1.3186829443246062, -2.101652421557291, -2.334325965391229, -4.127015116661087, -3.358853937647952, -1.4863185703607877, -0.7261700214143377, -0.9958831292461326, -0.4366530620008963, 1.0039221706609887, 1.4596933862364454, 1.2561735449229896, -0.13726874376694487, -0.3782887895570956, -1.3485748051306756, -0.5775294398496912, -0.8835966838151726, 1.9286189427282214, -1.3885104982124141, -0.6974067372784355, 0.8459666183126392, -1.14974662301377, -0.11681170344154612, 0.11043789630120493, 0.16063587685614358, -1.2428884021304085, -0.665083955025034, -0.643177839238849, 0.01047159273205139, -0.9180214892131889, -1.7468834888854252, -3.0250794200819047, -1.368715933787135, -1.0836543495481394, 1.0312858425562117, -1.222991795722429, 1.0895266667192456, 0.20741171083620177, 1.8678234674844691, 1.3798480776977609, 0.7080981285219219, 0.4187353067396447, -0.6347629775347424, 0.762301799826924, -0.7850560014222876, 0.7636508436710943, -0.009407447010782211, -3.2735419395133847, -0.6035497249566522, -0.6803360671099499, 1.7240029879145395, -0.20261869575968144, 1.4964562334889777, -0.80170411864996, -1.780436397748629, -1.34822706457297, 0.18131258513033463, -1.2731490447083837, -2.250598018206927, -2.09027037100586, -2.0652886941776405, 0.057774008111080466, -0.14219159699956246, -0.2857411749853684, 0.7982705446975751, 1.271861613183041, 2.3456832660292273, 0.965087719886009, 1.1238868946071998, 1.8235769610599788, 0.8605588464612794, -1.112828647280701, 1.2138470868076332, -0.7016818175914699, -1.463449114413071, -1.058550740997988, -0.4632394509204736, -0.14370399157169222, 0.37084802519235543, 0.821269978465473, -1.8903598191758046, 0.9663744789276518, 1.561776275547178, 0.7085296518033836, 1.7622150534863767, 1.2414432853111654, 0.5984453388475865, 1.1026959950841493, -1.2141318861953763, -0.11499548214800283, 0.31795933180056934, -0.6905613354720715, 1.1521973799445828, 0.552901815255798, 0.679889783350292, 1.959886150835564, 0.38984054115948913, 0.3890081847518772, 0.7643022075046373, -1.2210285110788337, 1.8783087960152218, -0.5652540493267634, -0.8909877829496385, 0.2954878762756064, 0.21193864319692224, 0.8914807676704457, 1.5549221355656064, 2.0002778436306143, 0.8497398586391833, 0.3657851518198583, -0.9125722317852363, -0.2540968272577452, 1.4850589530964857, 1.9889305778674053, -0.6659779341930168, -0.2831281718352562, 0.011655678667355696, -0.26391652093484097, -0.006390127297084036, 0.9483061150881333, -0.1720044499843553, 0.8954833175474575, 1.489060843812865, 1.1349420117721556, 2.2392819420696544, 1.4126068369569196, -1.0451046833755244, 0.05605200679309917, -0.2378645786370753, -0.38394827702440615, 0.8895135265093902, 0.9781677535376492, 0.04055003419613272, 0.7139390225095472, 0.8115495972995951, -0.3098149169863771, -1.3374172731980978, 1.0159213849584239, 0.41123112930223343, 3.613419234750806, 0.6110395524361607, 0.20216456505453848, 0.997334128877787, 2.1303207768323156, -0.478730628028678, -0.0325992190763623, 0.17128655905750273, -0.09352351347789123, -1.1018740858916514, 0.03040496640011797, 2.8915535628145994, 1.4654122937675527, -1.0384647973438326, -2.4906285778123154, -0.5398302885853469, -0.3899282239536797, -1.8147290682314174, -0.6345727634369251, -1.1376375050341057, 1.800266870169554, 1.2875778238212479, 1.2175616304598424, -1.4558826422231104, -1.277581472657438, 0.6598126388802821, 0.42196962891335626, 0.23814981081992503, -0.5394571372566183, 1.500130075582615, 0.24789739473789835, -1.5165952330099703, -0.03151375014668868, -0.6260024704416103, 0.26752565205070084, 0.22762571970443432, 0.16003665760312621, -0.9123683234157826, 0.656540991904048, 2.522735532342038, -1.491423875600888, -1.7786478923212272, -1.5322978935513756, -1.061290768473916, -1.7800242016859293, -0.3271304129835883, -0.5522532724731508, 0.6451735579626529, -1.1955011025995064, 1.195904743189128, 0.07640364015366323, 0.8907207249953304, -0.4999760055760867, -0.7481861332151073, -0.2934608911167191, -0.1457225973304324, -2.8686054458294303, 1.7435578220993897, 0.92398686297863, 1.0449432175174733, 2.0939082892250935, -0.13430062995051179, 1.3815692548610359, 1.0303075587891324, 0.21816944758921264, 1.1639104324597085, 0.9838790728184855, 0.9351887710222996, -1.954417560773398, -3.3027551110512063, -1.9560449146839054, -1.0907641071400815, 0.0032158827397929116, 1.6568726203049906, 0.36186597548158844, 1.3301908659096666, -0.9137516718192651, 0.8667143582361644, 0.4807616290675758, 0.0451194103944104, -2.074917906055814, 0.12299835161735202, -0.6112285513031752, -1.2850179472049719, 0.4259438841627035, -0.8408911835316707, -0.4520366483639398, 0.8587369017423803, -0.21969565196105617, 0.4904075777935208, -1.5686684918466454, 1.024047191333313, -0.4623729813053757, 0.4247372998208086, 1.0580996692815832, -1.1313049026759805, -0.5918536054295579, -2.6404290568539506, 0.37259905690329015, -0.9023430409736202, -0.7341943658993936, -1.1012341381566493, -1.7395522728317712, -0.18323795046293276, -0.2140895284464633, 0.1322651144472323, 1.4530035966893806, 0.4538636947071128, 0.7061618153923563, -0.008631327132349851, -1.3281507907135197, -1.7024596666532537, 0.04750271811360194, 0.2453951582202215, 1.7238529624936643, 0.7713859849173771, -0.13041102342853977, 2.2438370287039398, 0.37715954322533646, 0.9699489176906412, 0.21634485126996553, 1.4907790365627982, 0.3264350797331567, -1.3613894204810466, -0.51829089174928, -1.2779198000958432, -1.2231476973725757, -1.9119467410175561, -0.38578133042730306, -1.3612383928497946, -0.1131858751155981, 0.6475595449293594, 1.4885950849720182, -0.10216131762828809, 0.8197677624874885, 0.22872286737615777, -2.544803710000382, -1.2588734369615169, -0.8874512568317534, 1.4516292719398454, -2.072433190639229, -1.5038850670888535, 0.7569714276639177, 0.5408735794522962, 0.2247895650770814, 1.8856442319847153, 0.5179716012494545, 0.33274471720255244, -0.2671653334025001, 2.0199230369048684, 0.6913162867702572, 0.047490705852777766, -1.882737739939206, -1.0626345421824306, -0.5519077352177161, -1.0811504957487248, -0.02929436574141421, 1.1534248121486617, 1.1535617299661811, 0.47545796135279494, -1.7701259166612098, 0.42515375315448256, 1.1723611370426583, -2.1895362171069905, 0.5566882276958544, 0.20290599899832668, 0.9601252636420802, 1.4598892804644588, 1.0602942585691832, 0.09214852756480617, -0.35734990730252886, -0.7446174411774914, 1.9210036661806933, -1.0679215163381746, 1.5618304517529633, 0.31840072806039665, -0.7284018362520495, 0.7803540388064839, -2.992520499146569, -0.10667381803411048, 0.6337280896535348, -0.9592564829431665, -0.29301791231834573, -0.3989939575583879, -0.3577811701703452, 1.4498694528540303, -0.37139372067222587, 0.04555458405711935, -0.3137588184347637, 0.3657906929458288, 1.1219100985728323, 0.7521445154694181, 0.607627935077804, 0.8708656535537982, 0.9510127679232366, 1.149574234004027, -1.3215835265042122, 0.17473540648546176, 1.3083458770001901, 1.0001572365658782, -0.40864403365701074, 0.5101913875105397, 0.6403376566620299, 0.22485250007196478, 0.628074094673092, 0.9722779328080842, -1.4731717218776803, -1.2574483140919783, -0.9948502383051981, 1.6519250289369904, -1.0005187374057427, -1.3494055882320688, -1.41124849862178, -2.0339579956952405, -0.7662947800117511, -0.7999088021032545, 0.808752142933398, 0.36385173689098754, -1.1108062278656432, 0.845724408686521, -0.9745368007604979, -1.4403538237613822, -0.7386597982712528, -0.5360482133667159, -0.9113931214603661, 0.603350190593963, -1.9667606337950643, 0.38480651507833674, 0.9631295698102252, -0.08473904508630711, -1.4339709627970183, 0.6760634605919635, -0.038022237464107406, 0.3105785550749599, -0.010633250225394847, -1.6515362805649747, -0.6050363691033892, -0.5282810661083982, -0.23650767687310373, -0.06073134280545751, -0.6782640530626629, -0.14755357327925225, -1.3133543137603891, -0.3982819773050348, -0.6950618810902441, 0.40000898392909173, -0.06068468930571975, 2.745940114951046, 0.6071103791115195, 0.9825844354857914, -0.18702832403019945, -0.42968032253851807, 0.5026908488560933, 0.44312558547255515, 0.7368770544419502, 1.1259599361779111, 0.7231300470989891, 0.5940515218737183, -1.8057908757614742, -0.3500873109761081, 0.7031289895450482, -0.5058277179969886, 0.0821796617178252, -0.9385089442986608, -0.33805045163301606, -0.5658631085084078, 0.6772001825131254, 0.37997132340520695, -0.3424064076054162, 0.02969699960851425, -0.04660548444820641, -0.14717502774317853, -1.5262565195747435, 0.4839736034844699, -1.832883361390196, -0.8713467688827409, -1.0694858489096442, 0.0005920068008198464], [0.22526471901435768, -0.23098027724452433, -0.5143917458565922, 0.30689744051831364, -0.38691212749975923, -0.5553648190774225, 0.9150575493745978, 1.0036947886659293, 1.5897439032558915, -0.5973210525933152, 1.50283669078068, 0.5182471468723521, 0.6856035458780189, 1.0658413673028324, 0.1973433136351053, 0.5432531236958899, 0.5466580724081548, -2.2742696398801154, 1.0554738329101152, 0.7962596243790956, 1.3416301370350883, -0.16559642982226389, 0.639321614653823, -2.037929050978488, -0.4257456428669265, 1.0504466963370425, 0.6907490982288575, 0.9252928321279091, -0.644285389374461, -0.7945688850874906, 0.05415034506521819, 1.3591037918665188, -0.26860117013912654, -0.7471533864202313, 0.377456982051092, -1.6799339049793625, 1.7527887912057671, 1.165387917000918, -0.8507439260746698, -0.7214597653101279, 0.37258462904187045, -0.9529356555496498, -1.2411920314011655, -1.3874440710205715, -2.2840468078713707, 1.1091982255321802, -2.2908897206547087, -0.02566395605154649, -1.1022517954468536, 0.4197415499040323, 0.8914496708004933, -0.8922309868358496, -1.6748799914176322, 0.059637237860975086, -1.5869188449140355, 0.4162817564225986, 2.239874941199298, -1.3168455019331606, -0.028794194148148336, -1.6429155400480835, 1.000395759128409, -0.07759353643941293, 1.0527542977803683, -0.5494048070120262, 1.2528701952040306, -0.8035565606934645, -2.422639357274067, -0.5642150779192487, 0.33336461752185403, 0.06748707259584531, 0.5251718872979289, -1.1647227434169363, 0.6264184737152944, -1.4922399811100697, 0.7526724653272703, 0.753145949105838, 2.6278234161445027, -0.27303892343858055, 0.5206345134210943, -0.43966876463359306, 0.5121629789814178, -0.6278513966090064, 0.7867937843084524, 0.704682823039629, 0.8583360712040164, -0.3618579879316543, 0.37545976929143327, 1.167291221986372, -4.170915875807677, 0.7421237573371232, 0.24904725633846456, -0.4108233512263298, 1.7201300771201968, -0.8905650645925254, -1.1341935019602278, 2.292155051195905, 0.6641784778589434, -1.3586374743025493, 0.3614966166001871, -0.4318248568975757, -0.13688937271335294, -0.2051337486015181, -0.027564371294264853, 2.9202015001801227, 1.510443819457233, -1.0627029411676072, -0.8275076571843132, -0.4025445275192332, 